tree
version=v3
num_class=3
num_tree_per_iteration=3
label_index=0
max_feature_idx=3
objective=multiclass num_class:3
feature_names=Column_0 Column_1 Column_2 Column_3
feature_infos=[4.2999999999999998:7.7000000000000002] [2:4.4000000000000004] [1:6.7000000000000002] [0.10000000000000001:2.5]
tree_sizes=536 515 531 632 524 630 632 509 532 635 627 534 636 513 737 635 512 631 631 531 531 642 634 531 745 633 531 646 633 847

Tree=0
num_leaves=4
num_cat=0
split_feature=2 2 0
split_gain=77.0732 0.0768293 3.55271e-15
threshold=3.1500000000000004 1.4500000000000002 6.1500000000000012
decision_type=2 2 2
left_child=1 -1 -2
right_child=2 -3 -4
leaf_value=-0.29861228866810952 -1.4986122886681097 -0.3586122886681099 -1.4986122886681099
leaf_weight=7.0000002086162549 12.333333700895311 6.6666668653488159 14.000000417232512
leaf_count=21 37 20 42
internal_value=-1.09861 -0.327881 -1.49861
internal_weight=0 13.6667 26.3333
internal_count=120 41 79
shrinkage=1


Tree=1
num_leaves=4
num_cat=0
split_feature=2 3 3
split_gain=19.2405 39.74 0.47422
threshold=1.8 1.6500000000000001 1.3500000000000003
decision_type=2 2 2
left_child=-1 2 -2
right_child=1 -3 -4
leaf_value=-1.4789829533524546 -0.38827595618627175 -1.4148991109807634 -0.53054208625142574
leaf_weight=12.821042180061339 8.4348961710929888 12.483646333217619 6.7479169368743888
leaf_count=38 25 37 20
internal_value=-1.07392 -0.886207 -0.451505
internal_weight=0 27.6665 15.1828
internal_count=120 82 45
shrinkage=1


Tree=2
num_leaves=4
num_cat=0
split_feature=2 2 2
split_gain=63.5727 2.03185 0.105245
threshold=4.7500000000000009 5.3500000000000005 4.1500000000000012
decision_type=2 2 2
left_child=2 -2 -1
right_child=1 -3 -4
leaf_value=-1.5189918205749988 -0.60731088577489678 -0.30341724084152955 -1.461107316778167
leaf_weight=18.427499532699589 6.5812498331069929 7.5684373080730438 6.9103123247623435
leaf_count=56 20 23 21
internal_value=-1.12393 -0.444763 -1.50321
internal_weight=0 14.1497 25.3378
internal_count=120 43 77
shrinkage=1


Tree=3
num_leaves=5
num_cat=0
split_feature=2 2 2 2
split_gain=29.0815 0.0084612 0.00291139 0.000820913
threshold=3.1500000000000004 1.4500000000000002 5.3500000000000005 4.4500000000000011
decision_type=2 2 2 2
left_child=1 -1 3 -2
right_child=2 -3 -4 -5
leaf_value=0.42727544508024717 -0.33391337078558786 0.40799087598932537 -0.32624906453746616 -0.34013966269354862
leaf_weight=7.3898007273673993 6.025810047984125 7.174420565366745 5.1289804130792609 7.7401450574398041
leaf_count=21 25 20 23 31
internal_value=0 0.417776 -0.334383 -0.337414
internal_weight=0 14.5642 18.8949 13.766
internal_count=120 41 79 56
shrinkage=0.4


Tree=4
num_leaves=4
num_cat=0
split_feature=3 3 3
split_gain=9.5051 14.5704 0.226457
threshold=0.45000000000000007 1.6500000000000001 1.3500000000000003
decision_type=2 2 2
left_child=-1 2 -2
right_child=1 -3 -4
leaf_value=-0.34174022040875052 0.40784239258438615 -0.25998447478719616 0.31256854707797183
leaf_weight=9.1997698694467527 8.7461964190006309 9.5188176780939084 7.3430204987525931
leaf_count=38 25 37 20
internal_value=0 0.132284 0.36436
internal_weight=0 25.608 16.0892
internal_count=120 82 45
shrinkage=0.4


Tree=5
num_leaves=5
num_cat=0
split_feature=2 2 1 3
split_gain=23.6781 0.795587 0.126271 0.00264106
threshold=4.7500000000000009 5.3500000000000005 2.8500000000000001 0.45000000000000007
decision_type=2 2 2 2
left_child=2 -2 -1 -4
right_child=1 -3 3 -5
leaf_value=-0.25710556155206682 0.26564875619089018 0.44647649897790598 -0.32728466583104709 -0.33908301652006667
leaf_weight=5.0437746644020107 7.3935778439044944 8.2221475243568403 8.3414823114871961 4.7725304365158072
leaf_count=21 20 23 37 19
internal_value=0 0.36086 -0.310892 -0.331578
internal_weight=0 15.6157 18.1578 13.114
internal_count=120 43 77 56
shrinkage=0.4


Tree=6
num_leaves=5
num_cat=0
split_feature=2 0 2 3
split_gain=14.8868 0.056854 0.0021338 0.00293221
threshold=3.1500000000000004 5.0500000000000007 5.3500000000000005 1.5500000000000003
decision_type=2 2 2 2
left_child=1 -1 3 -2
right_child=2 -3 -4 -5
leaf_value=0.35128184866572298 -0.30468238544321524 0.29409683034607365 -0.29806753052366364 -0.31918339208064817
leaf_weight=5.8808586299419421 6.1452040076255781 5.2786079943180084 3.2287628948688498 3.5028629750013351
leaf_count=22 38 19 23 18
internal_value=0 0.324232 -0.306968 -0.309947
internal_weight=0 11.1595 12.8768 9.64807
internal_count=120 41 79 56
shrinkage=0.4


Tree=7
num_leaves=4
num_cat=0
split_feature=2 2 0
split_gain=4.7964 8.84746 0.307326
threshold=1.8 4.9500000000000011 5.7500000000000009
decision_type=2 2 2
left_child=-1 2 -2
right_child=1 -3 -4
leaf_value=-0.30460297076815251 0.23473654976454786 -0.24633686069861083 0.3566466211304003
leaf_weight=5.9714039117097881 6.3437478393316287 7.4550515860319129 6.9151332974433899
leaf_count=38 22 36 24
internal_value=0 0.102294 0.298318
internal_weight=0 20.7139 13.2589
internal_count=120 82 46
shrinkage=0.4


Tree=8
num_leaves=4
num_cat=0
split_feature=2 2 2
split_gain=12.3006 0.910885 0.000723123
threshold=4.9500000000000011 4.4500000000000011 3.1500000000000004
decision_type=2 2 2
left_child=1 2 -1
right_child=-2 -3 -4
leaf_value=-0.29949861546262263 0.3266141669400312 -0.08758776295036648 -0.30634350038166835
leaf_weight=5.9738321006298083 10.760862886905668 4.5828104615211478 4.2096046805381775
leaf_count=41 36 18 25
internal_value=0 -0.235682 -0.302328
internal_weight=0 14.7662 10.1834
internal_count=120 84 66
shrinkage=0.4


Tree=9
num_leaves=5
num_cat=0
split_feature=2 1 0 2
split_gain=8.25006 0.0740286 0.000626084 0.000325971
threshold=3.1500000000000004 3.4500000000000006 5.9500000000000011 5.3500000000000005
decision_type=2 2 2 2
left_child=1 -1 -2 -4
right_child=2 -3 3 -5
leaf_value=0.24143549538694842 -0.29561068260828488 0.31957756611813704 -0.29116263748361332 -0.28466460367822061
leaf_weight=4.221006482839587 3.3718721345067006 3.5891760587692261 3.1397318542003632 2.0362843349575996
leaf_count=22 28 19 28 23
internal_value=0 0.277346 -0.291369 -0.288606
internal_weight=0 7.81018 8.54789 5.17602
internal_count=120 41 79 51
shrinkage=0.4


Tree=10
num_leaves=5
num_cat=0
split_feature=1 2 0 2
split_gain=2.6976 3.21207 0.478881 0.0414837
threshold=3.2500000000000004 5.0500000000000007 6.0500000000000007 4.0500000000000007
decision_type=2 2 2 2
left_child=1 2 3 -1
right_child=-2 -3 -4 -5
leaf_value=0.16343401473292873 -0.26774833754874611 -0.22451202066660048 0.29989715398711853 0.10387848857376841
leaf_weight=3.6747687086462992 4.2653505355119696 3.8891578465700141 4.3567410558462143 3.8131632506847382
leaf_count=24 36 25 19 16
internal_value=0 0.0908933 0.194456 0.133106
internal_weight=0 15.7338 11.8447 7.48793
internal_count=120 84 59 40
shrinkage=0.4


Tree=11
num_leaves=4
num_cat=0
split_feature=3 3 3
split_gain=6.67545 0.52653 0.000114901
threshold=1.6500000000000001 1.3500000000000003 0.45000000000000007
decision_type=2 2 2
left_child=1 2 -1
right_child=-2 -3 -4
leaf_value=-0.28557873200389938 0.26696418893383972 -0.10395064861721673 -0.28906981241208157
leaf_weight=3.5101391375064868 8.4080667197704297 4.2441979944705963 2.6451471149921417
leaf_count=38 37 20 25
internal_value=0 -0.212341 -0.287079
internal_weight=0 10.3995 6.15529
internal_count=120 83 63
shrinkage=0.4


Tree=12
num_leaves=5
num_cat=0
split_feature=3 1 0 0
split_gain=5.56748 0.157795 0.0313502 2.01917e-05
threshold=0.45000000000000007 3.0500000000000003 5.6500000000000012 6.2500000000000009
decision_type=2 2 2 2
left_child=-1 2 -2 -4
right_child=1 -3 3 -5
leaf_value=0.29840449699500077 -0.34883521225847575 -0.16111144410355971 -0.2820164448966091 -0.27997320624708816
leaf_weight=4.8777091801166534 1.6830787956714628 1.6397491283714769 1.6680724769830706 1.4435195066034792
leaf_count=38 16 22 22 22
internal_value=0 -0.268225 -0.304857 -0.281069
internal_weight=0 6.43442 4.79467 3.11159
internal_count=120 82 60 44
shrinkage=0.4


Tree=13
num_leaves=4
num_cat=0
split_feature=2 2 1
split_gain=1.84097 2.39485 0.940425
threshold=1.8 5.0500000000000007 2.8500000000000001
decision_type=2 2 2
left_child=-1 2 -2
right_child=1 -3 -4
leaf_value=-0.28195522671305839 0.069614789779274752 -0.2036441019723052 0.32360774325629277
leaf_weight=2.7375079505145559 5.1763380467891675 3.4947078526020041 4.2452343702316284
leaf_count=38 27 32 23
internal_value=0 0.0791609 0.184061
internal_weight=0 12.9163 9.42157
internal_count=120 82 50
shrinkage=0.4


Tree=14
num_leaves=6
num_cat=0
split_feature=3 2 3 2 2
split_gain=3.59865 1.1585 0.00102124 9.89678e-05 1.42466e-06
threshold=1.6500000000000001 4.8500000000000005 1.3500000000000003 3.1500000000000004 1.4500000000000002
decision_type=2 2 2 2 2
left_child=1 2 3 4 -1
right_child=-2 -3 -4 -5 -6
leaf_value=-0.27734873088802153 0.22245756622949717 0.056134416625128004 -0.29167422752212646 -0.28171004693825408 -0.27797480538115771
leaf_weight=1.165303602814675 6.4350510835647583 2.2946173846721649 1.4720950871706007 1.6518483273684976 1.1608682908117769
leaf_count=21 37 7 13 22 20
internal_value=0 -0.182291 -0.282673 -0.279342 -0.277661
internal_weight=0 7.74473 5.45012 3.97802 2.32617
internal_count=120 83 76 63 41
shrinkage=0.4


Tree=15
num_leaves=5
num_cat=0
split_feature=3 1 1 1
split_gain=3.43708 0.154551 0.0185085 1.5789e-05
threshold=0.45000000000000007 3.0500000000000003 2.5500000000000003 2.8500000000000001
decision_type=2 2 2 2
left_child=-1 2 -2 -4
right_child=1 -3 3 -5
leaf_value=0.29084890634139149 -0.33909654189765553 -0.13119251409916111 -0.27724113020800317 -0.2750757594297833
leaf_weight=3.1549426466226578 1.1461431011557581 1.2152613289654253 1.1274519488215449 1.0318962149322031
leaf_count=38 15 22 21 24
internal_value=0 -0.253168 -0.298013 -0.276206
internal_weight=0 4.52075 3.30549 2.15935
internal_count=120 82 60 45
shrinkage=0.4


Tree=16
num_leaves=4
num_cat=0
split_feature=2 2 1
split_gain=1.06432 1.1471 0.855489
threshold=1.8 5.0500000000000007 2.8500000000000001
decision_type=2 2 2
left_child=-1 2 -2
right_child=1 -3 -4
leaf_value=-0.27672256359996433 0.028860843446509063 -0.16129729102020476 0.29973100100359179
leaf_weight=1.7064162977039821 4.4228915944695455 2.6726213023066521 3.2265150472521782
leaf_count=38 27 32 23
internal_value=0 0.0642944 0.143114
internal_weight=0 10.322 7.64941
internal_count=120 82 50
shrinkage=0.4


Tree=17
num_leaves=5
num_cat=0
split_feature=3 2 3 3
split_gain=2.02892 1.38876 0.00892314 8.64449e-05
threshold=1.6500000000000001 4.9500000000000011 1.4500000000000002 0.45000000000000007
decision_type=2 2 2 2
left_child=1 2 3 -1
right_child=-2 -3 -4 -5
leaf_value=-0.27301988554393536 0.18494594523881291 0.15457978820224802 -0.31782539285552552 -0.27737989968863352
leaf_weight=1.290867889299989 5.1431486532092094 1.5873493254184721 1.0892333425581453 1.667395833879709
leaf_count=38 37 5 9 31
internal_value=0 -0.162515 -0.286874 -0.275477
internal_weight=0 5.63485 4.0475 2.95826
internal_count=120 83 78 69
shrinkage=0.4


Tree=18
num_leaves=5
num_cat=0
split_feature=3 1 0 0
split_gain=2.28838 0.0921479 0.011936 5.95988e-06
threshold=1.0500000000000003 3.3500000000000001 5.6500000000000012 6.5500000000000007
decision_type=2 2 2 2
left_child=1 -1 -2 -4
right_child=2 -3 3 -5
leaf_value=0.14280172116206954 -0.33109139747670741 0.29621814970049859 -0.2733910197478534 -0.27189640293270528
leaf_weight=1.0491680651903155 0.79669539816677604 1.5546037033200262 1.2929099909961221 0.63727784901857365
leaf_count=21 12 26 38 23
internal_value=0 0.2344 -0.2899 -0.272898
internal_weight=0 2.60377 2.72688 1.93019
internal_count=120 47 73 61
shrinkage=0.4


Tree=19
num_leaves=4
num_cat=0
split_feature=1 3 1
split_gain=0.817105 0.702069 0.240176
threshold=3.2500000000000004 1.6500000000000001 2.7500000000000004
decision_type=2 2 2
left_child=1 2 -1
right_child=-2 -3 -4
leaf_value=0.24276387632558791 -0.25277945592855133 -0.081569954089335373 0.064068693151333109
leaf_weight=2.6672407723963261 1.5198765993118284 3.0961842425167561 2.192819707095623
leaf_count=21 36 30 33
internal_value=0 0.0672987 0.162138
internal_weight=0 7.95624 4.86006
internal_count=120 84 54
shrinkage=0.4


Tree=20
num_leaves=4
num_cat=0
split_feature=3 1 1
split_gain=1.41994 0.846845 0.247891
threshold=1.8500000000000003 2.9500000000000006 3.1500000000000008
decision_type=2 2 2
left_child=1 -1 -3
right_child=-2 2 -4
leaf_value=0.040311139500002161 0.29042303798868813 -0.15088028281515012 -0.39070526588404747
leaf_weight=3.5025541223585606 2.0760325044393539 1.5964980181306603 1.2139417901635168
leaf_count=36 25 22 37
internal_value=0 -0.0909207 -0.25447
internal_weight=0 6.31299 2.81044
internal_count=120 95 59
shrinkage=0.4


Tree=21
num_leaves=5
num_cat=0
split_feature=3 1 3 1
split_gain=1.47786 0.0776973 0.00269414 5.07291e-06
threshold=0.45000000000000007 3.0500000000000003 1.2500000000000002 2.8500000000000001
decision_type=2 2 2 2
left_child=-1 2 -2 -4
right_child=1 -3 3 -5
leaf_value=0.28128399598011933 -0.30517925356991538 -0.12090446443128865 -0.27230705208003825 -0.27055197677850173
leaf_weight=1.4079495593905451 0.58863423019647632 0.65490509942173947 0.63928673788905122 0.44827335514128208
leaf_count=38 12 22 25 23
internal_value=0 -0.237735 -0.283382 -0.271584
internal_weight=0 2.3311 1.67619 1.08756
internal_count=120 82 60 48
shrinkage=0.4


Tree=22
num_leaves=5
num_cat=0
split_feature=0 2 2 0
split_gain=0.436779 0.54093 0.0213286 0.00243741
threshold=5.1500000000000012 4.7500000000000009 4.1500000000000012 6.2500000000000009
decision_type=2 2 2 2
left_child=-1 2 -2 -3
right_child=1 3 -4 -5
leaf_value=-0.15845604176310074 0.19370146285814915 -0.022933393059201255 0.27796918204720927 -0.0040910020963927539
leaf_weight=1.82256250269711 0.87944494653493155 2.2767695356160402 1.0595816224813459 2.1224072519689798
leaf_count=34 23 13 20 30
internal_value=0 0.0637379 0.23975 -0.0138428
internal_weight=0 6.3382 1.93903 4.39918
internal_count=120 86 43 43
shrinkage=0.4


Tree=23
num_leaves=4
num_cat=0
split_feature=2 1 1
split_gain=1.08047 1.45367 0.100968
threshold=5.1500000000000012 2.8500000000000001 3.1500000000000008
decision_type=2 2 2
left_child=1 -1 -3
right_child=-2 2 -4
leaf_value=0.083243684242977192 0.29500052193956322 -0.26822842802642827 -0.44721904670093554
leaf_weight=3.4350818227976561 1.6057360731065271 1.2951851822435858 0.82571289036422957
leaf_count=33 26 25 36
internal_value=0 -0.0775257 -0.337913
internal_weight=0 5.55598 2.1209
internal_count=120 94 61
shrinkage=0.4


Tree=24
num_leaves=6
num_cat=0
split_feature=3 2 0 0 2
split_gain=0.962777 0.05015 0.00296084 6.82545e-06 6.18013e-07
threshold=1.0500000000000003 1.6500000000000001 5.5500000000000007 6.0500000000000007 5.1500000000000012
decision_type=2 2 2 2 2
left_child=1 -1 -2 -4 -5
right_child=2 -3 3 4 -6
leaf_value=0.27159739437569319 -0.31171260296505043 0.11016728074027521 -0.27159201966246133 -0.26983736609827086 -0.26903841575039367
leaf_weight=0.71762867644429229 0.38076774217188336 0.5393040906637907 0.37821702100336552 0.30811269022524357 0.31154397130012512
leaf_count=35 8 12 19 20 26
internal_value=0 0.202334 -0.281704 -0.270253 -0.269436
internal_weight=0 1.25693 1.37864 0.997874 0.619657
internal_count=120 47 73 65 46
shrinkage=0.4


Tree=25
num_leaves=5
num_cat=0
split_feature=0 3 1 3
split_gain=0.30876 0.563685 0.641407 0.229479
threshold=6.3500000000000005 1.6500000000000001 2.7500000000000004 1.0500000000000003
decision_type=2 2 2 2
left_child=1 2 -1 -4
right_child=-2 -3 3 -5
leaf_value=0.20939727377525916 0.19284807498694073 -0.18831069379677862 -0.27733833506030903 0.037911747997961792
leaf_weight=2.1667859684675936 1.2725009918212888 2.1304019717499614 0.80014099879190304 0.68636002764105797
leaf_count=21 31 16 39 13
internal_value=0 -0.0247847 0.0705749 -0.131778
internal_weight=0 5.78369 3.65329 1.4865
internal_count=120 89 73 52
shrinkage=0.4


Tree=26
num_leaves=4
num_cat=0
split_feature=2 1 1
split_gain=0.737653 0.87543 0.120916
threshold=5.1500000000000012 2.8500000000000001 3.1500000000000008
decision_type=2 2 2
left_child=1 -1 -3
right_child=-2 2 -4
leaf_value=0.060369166803325561 0.28823189608664779 -0.21254736345933442 -0.43247687664705925
leaf_weight=3.2665380388498306 1.1904717367142437 1.1347452737390993 0.61771298525854934
leaf_count=33 26 25 36
internal_value=0 -0.0619916 -0.290069
internal_weight=0 5.019 1.75246
internal_count=120 94 61
shrinkage=0.4


Tree=27
num_leaves=5
num_cat=0
split_feature=3 1 3 3
split_gain=0.61957 0.0450403 0.00044177 2.46104e-06
threshold=0.45000000000000007 3.0500000000000003 1.2500000000000002 1.6500000000000001
decision_type=2 2 2 2
left_child=-1 2 -2 -4
right_child=1 -3 3 -5
leaf_value=0.27365860767530509 -0.28776699792455335 -0.10632239465649834 -0.26860444762721619 -0.27035002123636009
leaf_weight=0.57713361410424124 0.36040922487154581 0.34401915967464447 0.23969344049692154 0.28041384555399418
leaf_count=38 12 22 25 23
internal_value=0 -0.229053 -0.277004 -0.269546
internal_weight=0 1.22454 0.880517 0.520107
internal_count=120 82 60 48
shrinkage=0.4


Tree=28
num_leaves=5
num_cat=0
split_feature=0 3 1 3
split_gain=0.283356 0.498216 0.389309 0.150419
threshold=6.4500000000000011 1.6500000000000001 2.7500000000000004 1.0500000000000003
decision_type=2 2 2 2
left_child=1 2 -1 -4
right_child=-2 -3 3 -5
leaf_value=0.18075960513763961 0.20070451546209542 -0.18217823689284779 -0.27433910770091474 0.017964101341318827
leaf_weight=1.9695333391427996 1.0504921516403554 2.0166157716885209 0.51044480595737673 0.62851030845195055
leaf_count=21 26 19 39 15
internal_value=0 -0.0273391 0.073112 -0.113037
internal_weight=0 5.1251 3.10849 1.13896
internal_count=120 94 75 54
shrinkage=0.4


Tree=29
num_leaves=7
num_cat=0
split_feature=3 1 0 0 3 3
split_gain=0.306023 0.403462 0.964918 0.443009 8.75791e-06 2.31555e-06
threshold=1.6500000000000001 2.4500000000000006 6.0500000000000007 5.9500000000000011 1.0500000000000003 0.25000000000000006
decision_type=2 2 2 2 2 2
left_child=1 -1 3 4 5 -3
right_child=-2 2 -4 -5 -6 -7
leaf_value=0.18530323392770456 0.09786084288304657 -0.26736628043503985 0.06342903184907063 -0.86445911947902432 -0.27214108934526332 -0.27012054676691694
leaf_weight=0.63969456404447589 2.9363733567297459 0.097958958474919089 1.1169391707517204 0.33051194064319134 0.31859567668288946 0.097396259428933263
leaf_count=10 37 29 17 2 13 12
internal_value=0 -0.0905514 -0.180519 -0.50318 -0.270848 -0.268739
internal_weight=0 2.6011 1.9614 0.844463 0.513951 0.195355
internal_count=120 83 73 56 54 41
shrinkage=0.4


end of trees

feature_importances:
Column_2=37
Column_3=33
Column_1=24
Column_0=17

parameters:
[boosting: gbdt]
[objective: multiclass]
[metric: multi_logloss]
[tree_learner: serial]
[device_type: cpu]
[data: ]
[valid: ]
[num_iterations: 10]
[learning_rate: 0.4]
[num_leaves: 31]
[num_threads: 0]
[deterministic: 0]
[force_col_wise: 0]
[force_row_wise: 0]
[histogram_pool_size: -1]
[max_depth: -1]
[min_data_in_leaf: 20]
[min_sum_hessian_in_leaf: 0.001]
[bagging_fraction: 0.8]
[pos_bagging_fraction: 1]
[neg_bagging_fraction: 1]
[bagging_freq: 0]
[bagging_seed: 400]
[feature_fraction: 0.7]
[feature_fraction_bynode: 1]
[feature_fraction_seed: 30056]
[extra_trees: 0]
[extra_seed: 12879]
[early_stopping_round: 0]
[first_metric_only: 0]
[max_delta_step: 0]
[lambda_l1: 0]
[lambda_l2: 0]
[min_gain_to_split: 0]
[drop_rate: 0.1]
[max_drop: 50]
[skip_drop: 0.5]
[xgboost_dart_mode: 0]
[uniform_drop: 0]
[drop_seed: 17869]
[top_rate: 0.2]
[other_rate: 0.1]
[min_data_per_group: 100]
[max_cat_threshold: 32]
[cat_l2: 10]
[cat_smooth: 10]
[max_cat_to_onehot: 4]
[top_k: 20]
[monotone_constraints: ]
[monotone_constraints_method: basic]
[monotone_penalty: 0]
[feature_contri: ]
[forcedsplits_filename: ]
[refit_decay_rate: 0.9]
[cegb_tradeoff: 1]
[cegb_penalty_split: 0]
[cegb_penalty_feature_lazy: ]
[cegb_penalty_feature_coupled: ]
[path_smooth: 0]
[interaction_constraints: ]
[verbosity: 1]
[saved_feature_importance_type: 0]
[max_bin: 255]
[max_bin_by_feature: ]
[min_data_in_bin: 3]
[bin_construct_sample_cnt: 200000]
[data_random_seed: 175]
[is_enable_sparse: 1]
[enable_bundle: 1]
[use_missing: 1]
[zero_as_missing: 0]
[feature_pre_filter: 1]
[pre_partition: 0]
[two_round: 0]
[header: 0]
[label_column: ]
[weight_column: ]
[group_column: ]
[ignore_column: ]
[categorical_feature: ]
[forcedbins_filename: ]
[objective_seed: 16083]
[num_class: 3]
[is_unbalance: 0]
[scale_pos_weight: 1]
[sigmoid: 1]
[boost_from_average: 1]
[reg_sqrt: 0]
[alpha: 0.9]
[fair_c: 1]
[poisson_max_delta_step: 0.7]
[tweedie_variance_power: 1.5]
[lambdarank_truncation_level: 30]
[lambdarank_norm: 1]
[label_gain: ]
[eval_at: ]
[multi_error_top_k: 1]
[auc_mu_weights: ]
[num_machines: 1]
[local_listen_port: 12400]
[time_out: 120]
[machine_list_filename: ]
[machines: ]
[gpu_platform_id: -1]
[gpu_device_id: -1]
[gpu_use_dp: 0]
[num_gpu: 1]

end of parameters

pandas_categorical:null
