tree
version=v3
num_class=3
num_tree_per_iteration=3
label_index=0
max_feature_idx=3
objective=multiclass num_class:3
feature_names=Column_0 Column_1 Column_2 Column_3
feature_infos=[4.2999999999999998:7.7000000000000002] [2:4.4000000000000004] [1:6.7000000000000002] [0.10000000000000001:2.5]
tree_sizes=425 629 431 426 726 426 427 715 423 426 609 530 534 610 427 529 614 428 534 732 621 522 715 625 431 733 528 530 731 630 520 733 530 537 716 530 432 936 836 431 835 938 432 829 738 433 832 741 429 737 842 430 837 839 433 836 714 434 831 734 435 834 827 435 838 831 434 837 738 503 840 529 536 1054 943 537 929 945 641 931 946 537 940 942 534 846 634 523 946 636 436 832 742 421 850 744 420 850 536 435 730 537 420 733 642 437 627 534 436 931 846 438 934 853 424 933 953 439 954 745 424 849 742 439 829 633 543 645 435 545 643 436 422 647 437 543 646 540 424 647 542 422 646 437 428 851 637 444 644 737 441 646 645 443 752 745 425 645 645 439 860 646 442 643 538 336 639 743 336 744 855 336 642 852 337 850 646 442 857 540 429 1065 960 445 1063 854 410 855 650 426 650 750 408 943 751 429 945 752 337 864 539 337 867 533 429 853 545 338 760 645 432 652 628 433 649 543 336 754 543 336 753 543 442 754 545 335 756 639 337 972 650 337 870 757 435 745 645 413 837 642 428 753 856 324 857 641 408 846 626 413 845 644 427 852 646 437 852 648 340 852 647 340 853 648 340 650 546 341 855 521 414 864 755 429 866 546 429 439 437 429 865 653 416 658 758 429 751 755 415 638 548 414 836 445 429 834 547 415 734 548

Tree=0
num_leaves=3
num_cat=0
split_feature=2 2
split_gain=48.0515 0.271328
threshold=3.1500000000000004 1.5500000000000003
decision_type=2 2
left_child=1 -1
right_child=-2 -3
leaf_value=-0.89862682947448336 -1.1986043029311124 -0.9361522539196131
leaf_weight=7.3333335518836993 13.33333373069763 2.6666667461395264
leaf_count=22 40 8
internal_value=-1.09861 -0.908623
internal_weight=0 10
internal_count=70 30
shrinkage=1


Tree=1
num_leaves=5
num_cat=0
split_feature=3 2 2 0
split_gain=17.6385 24.3527 0.301351 0.247441
threshold=0.45000000000000007 4.8500000000000005 3.9500000000000006 6.5500000000000007
decision_type=2 2 2 2
left_child=-1 2 -2 -3
right_child=1 3 -4 -5
leaf_value=-1.1751742243554799 -0.92118395275509168 -1.1751539364911794 -0.87881528127983688 -1.1327993291011562
leaf_weight=9.4470837116241473 2.3617709279060346 3.3739584684371939 6.0731252431869507 2.3617709279060364
leaf_count=28 7 10 18 7
internal_value=-1.07392 -0.998772 -0.890666 -1.15773
internal_weight=0 14.1706 8.4349 5.73573
internal_count=70 42 25 17
shrinkage=1


Tree=2
num_leaves=3
num_cat=0
split_feature=2 0
split_gain=34.6435 0.251549
threshold=4.8500000000000005 6.5500000000000007
decision_type=2 2
left_child=-1 -2
right_child=1 -3
leaf_value=-1.222689422548924 -0.91883429008826456 -0.96226152738738024
leaf_weight=17.440312057733539 3.2906249165534964 2.3034374415874481
leaf_count=53 10 7
internal_value=-1.12393 -0.936697
internal_weight=0 5.59406
internal_count=70 17
shrinkage=1


Tree=3
num_leaves=3
num_cat=0
split_feature=2 1
split_gain=37.2427 0.177869
threshold=3.1500000000000004 3.2500000000000004
decision_type=2 2
left_child=1 -1
right_child=-2 -3
leaf_value=0.1397703000223964 -0.095137848033756495 0.16727904317966735
leaf_weight=3.5913919210433978 12.583381742238997 7.1891978979110718
leaf_count=10 40 20
internal_value=0 0.158125
internal_weight=0 10.7806
internal_count=70 30
shrinkage=0.1


Tree=4
num_leaves=6
num_cat=0
split_feature=3 3 3 1 0
split_gain=14.5261 16.4619 0.255956 0.159005 0.319246
threshold=0.45000000000000007 1.6500000000000001 2.0500000000000003 2.5500000000000003 6.1500000000000012
decision_type=2 2 2 2 2
left_child=-1 3 -3 -2 -5
right_child=1 2 -4 4 -6
leaf_value=-0.096133539538987067 0.16676057008485046 -0.05205940692362189 -0.097152804845459351 0.11839274802697858 0.16231798464290159
leaf_weight=8.9288128018379229 2.5178854465484601 2.2455570995807639 2.9067216813564301 3.9283245801925659 2.9041423797607422
leaf_count=28 7 7 9 11 8
internal_value=0 0.0659925 -0.0775201 0.145083 0.137079
internal_weight=0 14.5026 5.15228 9.35035 6.83247
internal_count=70 42 16 26 19
shrinkage=0.1


Tree=5
num_leaves=3
num_cat=0
split_feature=2 2
split_gain=27.4478 0.269147
threshold=4.8500000000000005 5.1500000000000012
decision_type=2 2
left_child=-1 -2
right_child=1 -3
leaf_value=-0.094100739381802592 0.12965593258856917 0.17271746255916617
leaf_weight=16.418138682842258 2.5046440660953513 3.5542458891868591
leaf_count=53 7 10
internal_value=0 0.154934
internal_weight=0 6.05889
internal_count=70 17
shrinkage=0.1


Tree=6
num_leaves=3
num_cat=0
split_feature=2 3
split_gain=29.7638 0.133237
threshold=3.1500000000000004 0.25000000000000006
decision_type=2 2
left_child=1 -1
right_child=-2 -3
leaf_value=0.14399087457544738 -0.091123010241143207 0.11983092316550879
leaf_weight=7.8311794400215167 11.780635595321653 3.3219172954559326
leaf_count=21 40 9
internal_value=0 0.136804
internal_weight=0 11.1531
internal_count=70 30
shrinkage=0.1


Tree=7
num_leaves=6
num_cat=0
split_feature=2 2 1 2 2
split_gain=11.7156 13.9098 0.448153 0.270028 0.000181768
threshold=1.8 4.8500000000000005 2.9500000000000006 5.1500000000000012 4.2500000000000009
decision_type=2 2 2 2 2
left_child=-1 2 4 -3 -2
right_child=1 3 -4 -5 -6
leaf_value=-0.092536975385420994 0.14613574499345111 -0.047072141297359843 0.098268794114632907 -0.093436523771227076 0.14153287433432207
leaf_weight=8.1167216598987597 3.7151574790477735 2.1511748433113089 3.2157489657402039 3.0619308650493622 2.6158681511878967
leaf_count=27 10 7 9 10 7
internal_value=0 0.057033 0.128773 -0.0743248 0.144251
internal_weight=0 14.7599 9.54677 5.21311 6.33103
internal_count=70 43 26 17 17
shrinkage=0.1


Tree=8
num_leaves=3
num_cat=0
split_feature=2 2
split_gain=22.388 0.206346
threshold=4.8500000000000005 5.1500000000000012
decision_type=2 2
left_child=-1 -2
right_child=1 -3
leaf_value=-0.0902679903113838 0.11182430059686338 0.14886003215410112
leaf_weight=15.340836435556414 2.5906366705894461 3.7080080509185791
leaf_count=53 7 10
internal_value=0 0.133644
internal_weight=0 6.29864
internal_count=70 17
shrinkage=0.1


Tree=9
num_leaves=3
num_cat=0
split_feature=2 1
split_gain=24.3069 0.136267
threshold=3.1500000000000004 3.2500000000000004
decision_type=2 2
left_child=1 -1
right_child=-2 -3
leaf_value=0.1059223926511299 -0.087760636708049983 0.12954582093214281
leaf_weight=3.7281206250190753 10.954349309206007 7.4812103807926178
leaf_count=10 40 20
internal_value=0 0.121698
internal_weight=0 11.2093
internal_count=70 30
shrinkage=0.1


Tree=10
num_leaves=5
num_cat=0
split_feature=2 2 0 1
split_gain=9.85748 11.2155 0.401131 0.621272
threshold=1.8 5.0500000000000007 6.3500000000000005 2.7500000000000004
decision_type=2 2 2 2
left_child=-1 2 3 -2
right_child=1 -3 -4 -5
leaf_value=-0.08887962606223565 0.116216066452211 -0.089925506777526198 0.13806816963493729 0.056655999107634684
leaf_weight=7.5478990375995663 4.7753530442714673 4.0206955075263968 2.9225367903709412 2.7797612249851227
leaf_count=27 13 14 8 8
internal_value=0 0.0520415 0.10653 0.0943162
internal_weight=0 14.4983 10.4777 7.55511
internal_count=70 43 29 21
shrinkage=0.1


Tree=11
num_leaves=4
num_cat=0
split_feature=3 0 0
split_gain=16.6549 0.209215 0.177042
threshold=1.6500000000000001 6.5500000000000007 6.0500000000000007
decision_type=2 2 2
left_child=2 -2 -1
right_child=1 -3 -4
leaf_value=-0.086972849510507169 0.13324399675409018 0.095367124874827014 -0.059797402862483452
leaf_weight=11.529633879661562 3.3720992207527152 2.6237140595912933 3.0640313923358908
leaf_count=43 9 7 11
internal_value=0 0.116687 -0.0812745
internal_weight=0 5.99581 14.5937
internal_count=70 16 54
shrinkage=0.1


Tree=12
num_leaves=4
num_cat=0
split_feature=3 1 3
split_gain=20.2078 0.30178 0.00173082
threshold=0.45000000000000007 3.2500000000000004 1.2500000000000002
decision_type=2 2 2
left_child=-1 2 -2
right_child=1 -3 -4
leaf_value=0.11723371966388191 -0.089536921328875488 -0.042044400976556207 -0.084863598429850806
leaf_weight=10.290417224168779 2.1423670053482038 1.9050479233264912 6.8194638043642044
leaf_count=28 8 7 27
internal_value=0 -0.078298 -0.0859927
internal_weight=0 10.8669 8.96183
internal_count=70 42 35
shrinkage=0.1


Tree=13
num_leaves=5
num_cat=0
split_feature=2 2 0 1
split_gain=8.34711 9.32527 0.351093 0.517148
threshold=1.8 5.0500000000000007 6.3500000000000005 2.7500000000000004
decision_type=2 2 2 2
left_child=-1 2 3 -2
right_child=1 -3 -4 -5
leaf_value=-0.085792501312769803 0.10566610326095854 -0.0870525668511688 0.1267220352104611 0.051039617323764414
leaf_weight=6.9715496599674251 4.7055113017559034 3.7520289421081534 2.8784559369087219 2.7587588429450989
leaf_count=27 13 14 8 8
internal_value=0 0.0479799 0.096976 0.0854907
internal_weight=0 14.0948 10.3427 7.46427
internal_count=70 43 29 21
shrinkage=0.1


Tree=14
num_leaves=3
num_cat=0
split_feature=2 0
split_gain=15.6301 0.212309
threshold=4.8500000000000005 6.5500000000000007
decision_type=2 2
left_child=-1 -2
right_child=1 -3
leaf_value=-0.084358386729142754 0.12249681959072894 0.085039487112883227
leaf_weight=13.15245431661606 3.7096971273422232 2.6023086905479431
leaf_count=53 10 7
internal_value=0 0.107071
internal_weight=0 6.31201
internal_count=70 17
shrinkage=0.1


Tree=15
num_leaves=4
num_cat=0
split_feature=2 1 3
split_gain=16.9855 0.112721 0.00254549
threshold=3.1500000000000004 3.2500000000000004 0.25000000000000006
decision_type=2 2 2
left_child=1 -1 -3
right_child=-2 2 -4
leaf_value=0.087388837385440662 -0.082666872169961658 0.10747641347801298 0.11295764861102685
leaf_weight=3.5467302799224871 9.346383407711981 4.5812543332576752 2.5118716061115265
leaf_count=10 40 13 7
internal_value=0 0.102094 0.109432
internal_weight=0 10.6399 7.09313
internal_count=70 30 20
shrinkage=0.1


Tree=16
num_leaves=5
num_cat=0
split_feature=2 2 0 1
split_gain=7.09712 7.71149 0.321092 0.429743
threshold=1.8 5.0500000000000007 6.3500000000000005 2.7500000000000004
decision_type=2 2 2 2
left_child=-1 2 3 -2
right_child=1 -3 -4 -5
leaf_value=-0.08328036107881269 0.096503104030870923 -0.084279897133566262 0.11781122656345333 0.046200964960373667
leaf_weight=6.3946804106235531 4.5690507590770704 3.4568646550178519 2.7796072363853455 2.7197968363761902
leaf_count=27 13 14 8 8
internal_value=0 0.0445695 0.0888187 0.0777477
internal_weight=0 13.5253 10.0685 7.28885
internal_count=70 43 29 21
shrinkage=0.1


Tree=17
num_leaves=3
num_cat=0
split_feature=2 0
split_gain=13.2713 0.194147
threshold=4.8500000000000005 6.5500000000000007
decision_type=2 2
left_child=-1 -2
right_child=1 -3
leaf_value=-0.082022764027879294 0.11326251664633889 0.077047514319454072
leaf_weight=12.070841982960703 3.6141951680183402 2.5533140301704407
leaf_count=53 10 7
internal_value=0 0.098287
internal_weight=0 6.16751
internal_count=70 17
shrinkage=0.1


Tree=18
num_leaves=4
num_cat=0
split_feature=3 1 0
split_gain=13.7007 0.250936 0.00222219
threshold=0.45000000000000007 3.0500000000000003 5.5500000000000007
decision_type=2 2 2
left_child=-1 2 -2
right_child=1 -3 -4
leaf_value=0.10106993433817653 -0.085816331407029989 -0.041543432488339957 -0.080669515854035687
leaf_weight=7.3850560486316708 1.88236880302429 1.8846859782934178 7.2737085670232773
leaf_count=22 8 8 34
internal_value=0 -0.0748874 -0.0817393
internal_weight=0 11.0408 9.15608
internal_count=72 50 42
shrinkage=0.1


Tree=19
num_leaves=6
num_cat=0
split_feature=3 3 2 1 1
split_gain=4.60153 8.36415 0.616561 0.14239 0.105037
threshold=1.5500000000000003 0.45000000000000007 4.4500000000000011 2.9500000000000006 2.8500000000000001
decision_type=2 2 2 2 2
left_child=1 -1 4 -2 -3
right_child=3 2 -4 -5 -6
leaf_value=-0.081143144344725693 -0.098320814058289879 0.10452908103896222 0.035943011609065975 -0.066081932704323651 0.078460226129190666
leaf_weight=4.7634229809045818 2.4118505269289008 4.7836004197597486 2.2607353031635284 3.2604158669710159 2.3495484888553619
leaf_count=22 9 14 7 13 7
internal_value=0 0.0267859 0.0815256 -0.0798087 0.0959573
internal_weight=0 14.1573 9.39388 5.67227 7.13315
internal_count=72 50 28 22 21
shrinkage=0.1


Tree=20
num_leaves=5
num_cat=0
split_feature=2 3 1 2
split_gain=13.576 1.47214 0.101148 0.0102937
threshold=4.4500000000000011 1.5500000000000003 2.8500000000000001 5.5500000000000007
decision_type=2 2 2 2
left_child=-1 -2 -3 -4
right_child=1 2 3 -5
leaf_value=-0.080098944350740275 0.017504913412848235 0.12748870707336737 0.097624746618594868 0.10792510818209787
leaf_weight=8.9695062786340731 2.1186779439449293 2.736751526594162 2.2479373812675476 2.4699384868144989
leaf_count=43 7 8 7 7
internal_value=0 0.0911215 0.11203 0.10304
internal_weight=0 9.57331 7.45463 4.71788
internal_count=72 29 22 14
shrinkage=0.1


Tree=21
num_leaves=4
num_cat=0
split_feature=2 1 2
split_gain=11.8445 0.203011 0.000227465
threshold=1.8 3.0500000000000003 4.0500000000000007
decision_type=2 2 2
left_child=-1 2 -2
right_child=1 -3 -4
leaf_value=0.096228673893269862 -0.082647135763188176 -0.042525920075414253 -0.079020784491449739
leaf_weight=6.9360362291336086 1.8929757028818111 1.7805057317018498 6.4768806993961334
leaf_count=22 9 8 33
internal_value=0 -0.0733164 -0.0798537
internal_weight=0 10.1504 8.36986
internal_count=72 50 42
shrinkage=0.1


Tree=22
num_leaves=6
num_cat=0
split_feature=2 2 2 0 0
split_gain=3.8738 6.5634 1.09425 0.0613646 0.00708004
threshold=4.9500000000000011 1.8 4.4500000000000011 5.5500000000000007 6.3500000000000005
decision_type=2 2 2 2 2
left_child=1 -1 3 -3 -2
right_child=4 2 -4 -5 -6
leaf_value=-0.079729498504705704 -0.089495873080482485 0.076606118227582148 0.017889273739162014 0.097208176894680587 -0.080429072077374333
leaf_weight=4.3504029661417034 1.7824681848287571 2.2289102971553785 3.01751908659935 4.5043856501579285 2.7321510761976242
leaf_count=22 7 7 9 14 13
internal_value=0 0.0223983 0.0679744 0.0904041 -0.0840324
internal_weight=0 14.1012 9.75082 6.7333 4.51462
internal_count=72 52 30 21 20
shrinkage=0.1


Tree=23
num_leaves=5
num_cat=0
split_feature=2 3 1 2
split_gain=11.3996 1.23969 0.0833855 0.0153176
threshold=4.4500000000000011 1.5500000000000003 2.8500000000000001 5.5500000000000007
decision_type=2 2 2 2
left_child=-1 -2 -3 -4
right_child=1 2 3 -5
leaf_value=-0.078329163724074377 0.016436849217215003 0.11794946597313655 0.088865698733240933 0.10122307640277113
leaf_weight=8.1428924351930636 2.116676136851309 2.6259981095790863 2.1977519989013672 2.3507319092750549
leaf_count=43 7 8 7 7
internal_value=0 0.0837462 0.10359 0.0952756
internal_weight=0 9.29116 7.17448 4.54848
internal_count=72 29 22 14
shrinkage=0.1


Tree=24
num_leaves=3
num_cat=0
split_feature=2 0
split_gain=10.192 0.0703833
threshold=3.1500000000000004 5.0500000000000007
decision_type=2 2
left_child=1 -1
right_child=-2 -3
leaf_value=0.092521172005400665 -0.077612433085503113 0.072103061188428394
leaf_weight=4.1438835561275491 8.6370319426059705 2.9731890559196472
leaf_count=14 48 10
internal_value=0 0.0840064
internal_weight=0 7.11707
internal_count=72 24
shrinkage=0.1


Tree=25
num_leaves=6
num_cat=0
split_feature=3 3 3 1 1
split_gain=3.37412 6.01417 0.216483 0.143979 0.0755244
threshold=1.5500000000000003 0.45000000000000007 1.3500000000000003 2.9500000000000006 2.7500000000000004
decision_type=2 2 2 2 2
left_child=1 -1 4 -2 -3
right_child=3 2 -4 -5 -6
leaf_value=-0.077982581563375897 -0.093691079807655703 0.09322943064640217 0.050356061110191808 -0.05877210515251366 0.068881335301597388
leaf_weight=3.9255175739526775 2.061094641685485 3.2823423743247968 3.0998965203762054 2.8360226303339005 2.1633968949317932
leaf_count=22 9 11 10 13 7
internal_value=0 0.0244654 0.0715383 -0.0734905 0.0835764
internal_weight=0 12.4712 8.54564 4.89712 5.44574
internal_count=72 50 28 22 18
shrinkage=0.1


Tree=26
num_leaves=4
num_cat=0
split_feature=2 2 0
split_gain=9.61812 0.868014 0.0157573
threshold=4.4500000000000011 4.9500000000000011 6.3500000000000005
decision_type=2 2 2
left_child=-1 -2 -3
right_child=1 2 -4
leaf_value=-0.07679900288107562 0.029485933980533896 0.10483323711256794 0.093772819510758804
leaf_weight=7.3622853308916119 2.6448898017406446 2.3016752004623413 3.979467362165451
leaf_count=43 9 7 13
internal_value=0 0.0775997 0.0978428
internal_weight=0 8.92603 6.28114
internal_count=72 29 20
shrinkage=0.1


Tree=27
num_leaves=4
num_cat=0
split_feature=2 1 2
split_gain=8.77338 0.143134 0.00252817
threshold=3.1500000000000004 3.3500000000000001 1.4500000000000002
decision_type=2 2 2
left_child=1 -1 -3
right_child=-2 2 -4
leaf_value=0.057114095534058634 -0.076317205172074215 0.086118895872888609 0.092314358306649816
leaf_weight=1.9532348513603208 7.8481007963418961 2.1011522710323334 2.5649366974830627
leaf_count=7 48 8 9
internal_value=0 0.079993 0.0895473
internal_weight=0 6.61932 4.66609
internal_count=72 24 17
shrinkage=0.1


Tree=28
num_leaves=6
num_cat=0
split_feature=3 3 3 1 1
split_gain=2.92728 5.13421 0.187496 0.145828 0.0790944
threshold=1.5500000000000003 0.45000000000000007 1.3500000000000003 2.9500000000000006 2.7500000000000004
decision_type=2 2 2 2 2
left_child=1 -1 4 -2 -3
right_child=3 2 -4 -5 -6
leaf_value=-0.07655840896980938 -0.091926983330455306 0.089782994034864672 0.047876230599477557 -0.055473919373361318 0.064087783438346771
leaf_weight=3.545405954122546 1.9032960683107365 3.0388130843639356 3.0181513726711273 2.6559014618396759 2.0482906997203827
leaf_count=22 9 11 10 13 7
internal_value=0 0.0237993 0.067711 -0.0707151 0.0794579
internal_weight=0 11.6507 8.10526 4.5592 5.0871
internal_count=72 50 28 22 18
shrinkage=0.1


Tree=29
num_leaves=5
num_cat=0
split_feature=3 3 1 0
split_gain=8.13583 0.857405 0.0836159 0.0195927
threshold=1.5500000000000003 1.3500000000000003 2.8500000000000001 6.7500000000000009
decision_type=2 2 2 2
left_child=1 -1 -2 -4
right_child=2 -3 3 -5
leaf_value=-0.075495390437654228 0.10802851870518926 -0.0066877160396610451 0.07677198104176243 0.091246551191432615
leaf_weight=6.1711715161800367 2.354626953601838 2.568123996257782 2.0264287889003754 2.0559174120426178
leaf_count=40 8 10 7 7
internal_value=0 -0.0552878 0.0928617 0.0840876
internal_weight=0 8.7393 6.43697 4.08235
internal_count=72 50 22 14
shrinkage=0.1


Tree=30
num_leaves=4
num_cat=0
split_feature=2 1 2
split_gain=7.62529 0.184009 0.000366106
threshold=1.8 3.0500000000000003 4.0500000000000007
decision_type=2 2 2
left_child=-1 2 -2
right_child=1 -3 -4
leaf_value=0.085342598150237883 -0.079332986480833048 -0.03639726360142688 -0.07512854527271054
leaf_weight=5.4747576266527176 1.4603012353181837 1.4441067725419996 4.8640677481889725
leaf_count=22 9 8 33
internal_value=0 -0.0687464 -0.0761162
internal_weight=0 7.76848 6.32437
internal_count=72 50 42
shrinkage=0.1


Tree=31
num_leaves=6
num_cat=0
split_feature=3 3 3 1 1
split_gain=2.45451 4.33663 0.193228 0.144188 0.082438
threshold=1.5500000000000003 0.45000000000000007 1.3500000000000003 2.9500000000000006 2.7500000000000004
decision_type=2 2 2 2 2
left_child=1 -1 4 -2 -3
right_child=3 2 -4 -5 -6
leaf_value=-0.075298307389615515 -0.089412982491673967 0.086959199315457467 0.043264302649828723 -0.051643946330515972 0.059830447332791574
leaf_weight=3.1927979141473752 1.7281112223863608 2.795605406165123 2.9780759513378143 2.4939642995595932 1.9308674186468122
leaf_count=22 9 11 10 13 7
internal_value=0 0.0226814 0.0632984 -0.0671282 0.075899
internal_weight=0 10.8973 7.70455 4.22208 4.72647
internal_count=72 50 28 22 18
shrinkage=0.1


Tree=32
num_leaves=4
num_cat=0
split_feature=2 2 0
split_gain=6.99599 0.942283 0.0217304
threshold=4.4500000000000011 4.9500000000000011 6.3500000000000005
decision_type=2 2 2
left_child=-1 -2 -3
right_child=1 2 -4
leaf_value=-0.07446592072893049 0.018728764043522236 0.099856219628945919 0.086313743685759822
leaf_weight=6.0138522908091554 2.6432039588689786 2.0820740908384323 3.3978404253721237
leaf_count=43 9 7 13
internal_value=0 0.0678194 0.0914786
internal_weight=0 8.12312 5.47991
internal_count=72 29 20
shrinkage=0.1


Tree=33
num_leaves=4
num_cat=0
split_feature=3 1 0
split_gain=6.45928 0.222336 0.000715624
threshold=0.45000000000000007 3.0500000000000003 5.5500000000000007
decision_type=2 2 2
left_child=-1 2 -2
right_child=1 -3 -4
leaf_value=0.082305006063257677 -0.078762961606763521 -0.030393913455341093 -0.073936950550185745
leaf_weight=4.9632553458213806 1.2776653245091436 1.3967870622873304 4.448779508471489
leaf_count=22 8 8 34
internal_value=0 -0.0662941 -0.0750323
internal_weight=0 7.12323 5.72644
internal_count=72 50 42
shrinkage=0.1


Tree=34
num_leaves=6
num_cat=0
split_feature=2 2 2 0 3
split_gain=2.58809 3.72761 0.492257 0.0523822 0.0109567
threshold=4.9500000000000011 1.8 4.4500000000000011 5.5500000000000007 1.8500000000000003
decision_type=2 2 2 2 2
left_child=1 -1 3 -3 -2
right_child=4 2 -4 -5 -6
leaf_value=-0.075226721415821957 -0.08685101897806824 0.061543239989908738 0.023606022603929713 0.083298716586539118 -0.0743611402848494
leaf_weight=2.9107634946703893 1.4953141808509838 1.7368675470352171 2.8120394498109818 3.3244441002607346 1.7750021219253538
leaf_count=22 7 7 9 14 13
internal_value=0 0.0214514 0.0572067 0.075854 -0.0801045
internal_weight=0 10.7841 7.87335 5.06131 3.27032
internal_count=72 52 30 21 20
shrinkage=0.1


Tree=35
num_leaves=4
num_cat=0
split_feature=2 2 3
split_gain=5.98567 0.937297 0.0252963
threshold=4.4500000000000011 4.9500000000000011 1.8500000000000003
decision_type=2 2 2
left_child=-1 -2 -3
right_child=1 2 -4
leaf_value=-0.073506128251586797 0.015249852450011817 0.097681529652240709 0.082772963054447063
leaf_weight=5.4054334089159966 2.6339672058820724 2.0491494089365005 3.0341833084821701
leaf_count=43 9 7 13
internal_value=0 0.0637131 0.0888037
internal_weight=0 7.7173 5.08333
internal_count=72 29 20
shrinkage=0.1


Tree=36
num_leaves=3
num_cat=0
split_feature=2 3
split_gain=7.02654 0.0137186
threshold=3.1500000000000004 0.25000000000000006
decision_type=2 2
left_child=1 -1
right_child=-2 -3
leaf_value=0.079167729200975145 -0.073639732630983279 0.090518028317667157
leaf_weight=2.9944835603237152 6.5454826876521111 2.0113024562597275
leaf_count=15 53 8
internal_value=0 0.0837495
internal_weight=0 5.00579
internal_count=76 23
shrinkage=0.1


Tree=37
num_leaves=8
num_cat=0
split_feature=0 3 3 0 0 1 3
split_gain=2.74212 4.20666 0.553681 0.484976 0.462986 0.328552 0.0105059
threshold=5.2500000000000009 1.8500000000000003 1.2500000000000002 6.0500000000000007 6.4500000000000011 3.0500000000000003 0.35000000000000003
decision_type=2 2 2 2 2 2 2
left_child=5 2 -2 -4 -5 -1 -7
right_child=1 -3 3 4 -6 6 -8
leaf_value=-0.016267090787759592 0.033332835103897354 -0.073522137246734287 0.12889385840117645 0.040884271585139444 0.11656425998333614 -0.07236756793457387 -0.087468013857554469
leaf_weight=1.3600176945328724 1.7910198345780353 2.2292729616165161 2.6427056044340134 2.0043294802308087 1.3622169271111486 1.2117048874497416 0.95636078715324391
leaf_count=7 11 18 10 9 6 11 4
internal_value=0 0.0475965 0.0822252 0.0967796 0.0715385 -0.0548954 -0.0790777
internal_weight=0 10.0295 7.80027 6.00925 3.36655 3.52808 2.16807
internal_count=76 54 36 25 15 22 15
shrinkage=0.1


Tree=38
num_leaves=7
num_cat=0
split_feature=3 3 1 2 1 2
split_gain=6.49404 0.493567 0.325985 0.497774 0.19836 0.042615
threshold=1.6500000000000001 1.8500000000000003 2.7500000000000004 4.2500000000000009 2.9500000000000006 4.4500000000000011
decision_type=2 2 2 2 2 2
left_child=2 -2 3 -1 -4 -6
right_child=1 -3 4 -5 5 -7
leaf_value=-0.072517414247634443 0.020980602253399275 0.080980554552330428 -0.035183750129294332 -0.17508576051229338 -0.072661874723807029 -0.096150691177504521
leaf_weight=1.1208667755126951 2.1245408654212952 3.8938088268041611 1.3695108145475385 0.82585610449314106 2.7060496211051945 1.1420504897832868
leaf_count=10 8 18 8 4 24 4
internal_value=0 0.0598176 -0.0810856 -0.116085 -0.0680068 -0.0796606
internal_weight=0 6.01835 7.16433 1.94672 5.21761 3.8481
internal_count=76 26 50 14 36 28
shrinkage=0.1


Tree=39
num_leaves=3
num_cat=0
split_feature=2 2
split_gain=6.15889 0.0123588
threshold=3.1500000000000004 1.5500000000000003
decision_type=2 2
left_child=1 -1
right_child=-2 -3
leaf_value=0.077567126796979927 -0.072854957852342028 0.089379570897643867
leaf_weight=3.0811773836612701 5.9350311607122421 1.5023418664932249
leaf_count=17 53 6
internal_value=0 0.0814621
internal_weight=0 4.58352
internal_count=76 23
shrinkage=0.1


Tree=40
num_leaves=7
num_cat=0
split_feature=2 3 2 2 3 3
split_gain=3.30182 3.66999 0.862119 0.182533 0.0142949 0.00651018
threshold=3.1500000000000004 1.6500000000000001 5.0500000000000007 4.5500000000000007 1.3500000000000003 0.35000000000000003
decision_type=2 2 2 2 2 2
left_child=5 3 -3 4 -2 -1
right_child=1 2 -4 -5 -6 -7
leaf_value=-0.071856208905737837 0.078653384560863349 0.025623197137425169 -0.072407600013499149 0.12144235131215445 0.091164759801118073 -0.083136389734040306
leaf_weight=1.8211554437875759 2.8784913569688779 1.5279707908630373 2.168655626475811 1.7495578229427335 1.5947230905294416 0.98304650932550419
leaf_count=18 15 6 20 6 6 5
internal_value=0 0.0470385 -0.0318586 0.0939242 0.0831376 -0.0758486
internal_weight=0 9.9194 3.69663 6.22277 4.47321 2.8042
internal_count=76 53 26 27 21 23
shrinkage=0.1


Tree=41
num_leaves=8
num_cat=0
split_feature=3 1 1 0 1 1 3
split_gain=5.58426 0.485963 0.296294 0.303291 0.203642 0.0390284 0.0231133
threshold=1.6500000000000001 2.9500000000000006 2.7500000000000004 5.7500000000000009 2.9500000000000006 3.1500000000000008 1.4500000000000002
decision_type=2 2 2 2 2 2 2
left_child=2 -2 3 -1 -4 -3 -6
right_child=1 5 4 -5 6 -7 -8
leaf_value=-0.071962679127031678 0.094761464054943553 0.023224251668070687 -0.031250921896755178 -0.15344243067812882 -0.071764116190777175 0.044565991447527736 -0.089633020895491078
leaf_weight=0.92533987015485741 2.1375345587730408 1.7099665999412539 1.2964693903923032 0.91647204756736755 2.2725752070546155 1.7828342318534849 1.1778455674648283
leaf_count=9 10 8 8 5 23 8 5
internal_value=0 0.0571787 -0.0784404 -0.112564 -0.0651778 0.0341482 -0.0778947
internal_weight=0 5.63034 6.5887 1.84181 4.74689 3.4928 3.45042
internal_count=76 26 50 14 36 16 28
shrinkage=0.1


Tree=42
num_leaves=3
num_cat=0
split_feature=2 2
split_gain=5.36032 0.00743829
threshold=3.1500000000000004 1.5500000000000003
decision_type=2 2
left_child=1 -1
right_child=-2 -3
leaf_value=0.076057693223371664 -0.072167295618299418 0.086030147054755368
leaf_weight=2.7623655796051025 5.3525435924530029 1.3744215816259382
leaf_count=17 53 6
internal_value=0 0.0793967
internal_weight=0 4.13679
internal_count=76 23
shrinkage=0.1


Tree=43
num_leaves=7
num_cat=0
split_feature=2 3 3 1 1 3
split_gain=2.81191 3.08221 0.641505 0.20246 0.159062 0.00376704
threshold=3.1500000000000004 1.8500000000000003 1.6500000000000001 2.7500000000000004 2.9500000000000006 0.35000000000000003
decision_type=2 2 2 2 2 2
left_child=5 2 3 -2 -5 -1
right_child=1 -3 -4 4 -6 -7
leaf_value=-0.07116078872394134 0.11123871616103687 -0.07206983310554653 0.018431565767765095 0.04945299125909236 0.09314727574442383 -0.080822478921014074
leaf_weight=1.6130900979042064 2.4050286114215833 1.8143065646290777 1.6638469994068144 1.5551107972860339 1.8327821940183637 0.89014872908592213
leaf_count=18 13 18 8 7 7 5
internal_value=0 0.044793 0.0732412 0.0889653 0.0731221 -0.074639
internal_weight=0 9.27108 7.45677 5.79292 3.38789 2.50324
internal_count=76 53 35 27 14 23
shrinkage=0.1


Tree=44
num_leaves=6
num_cat=0
split_feature=2 1 2 2 2
split_gain=3.97957 1.28407 0.651157 0.380142 0.00400939
threshold=5.1500000000000012 2.8500000000000001 4.4500000000000011 4.7500000000000009 4.4500000000000011
decision_type=2 2 2 2 2
left_child=1 2 -1 4 -3
right_child=-2 3 -4 -5 -6
leaf_value=-0.071188371455472563 0.077790337296432199 -0.071327486874392707 0.01947670191292375 -0.14448786288120641 -0.080748086622932716
leaf_weight=1.160465463995932 3.2735932916402826 2.5432257577776913 2.4934333264827728 0.98421823978424061 0.8345990478992461
leaf_count=13 18 28 10 3 4
internal_value=0 -0.0530521 -0.00928913 -0.0896861 -0.0736867
internal_weight=0 8.01594 3.6539 4.36204 3.37782
internal_count=76 58 23 35 32
shrinkage=0.1


Tree=45
num_leaves=3
num_cat=0
split_feature=2 3
split_gain=4.66052 0.00543658
threshold=3.1500000000000004 0.35000000000000003
decision_type=2 2
left_child=1 -1
right_child=-2 -3
leaf_value=0.074774122658896686 -0.071551300225852529 0.084337005173431123
leaf_weight=2.6148108541965489 4.7959091439843178 1.1016418188810346
leaf_count=18 53 5
internal_value=0 0.0776374
internal_weight=0 3.71645
internal_count=76 23
shrinkage=0.1


Tree=46
num_leaves=7
num_cat=0
split_feature=2 3 2 0 3 3
split_gain=2.39724 2.63828 0.742975 0.142349 0.293657 0.0019687
threshold=3.1500000000000004 1.6500000000000001 5.0500000000000007 6.1500000000000012 1.4500000000000002 0.35000000000000003
decision_type=2 2 2 2 2 2
left_child=5 3 -3 4 -2 -1
right_child=1 2 -4 -5 -6 -7
leaf_value=-0.070559059362054616 0.076756008676431009 0.023991884468996236 -0.071277905973818459 0.063764600844139777 0.1379748617692424 -0.07885357292749795
leaf_weight=1.4268386289477359 2.2513257861137377 1.509436294436455 1.7854340746998785 1.8653409928083418 1.215021878480911 0.80258648842573155
leaf_count=18 14 6 20 8 5 5
internal_value=0 0.0427231 -0.0276009 0.0862018 0.0982451 -0.0735928
internal_weight=0 8.62656 3.29487 5.33169 3.46635 2.22943
internal_count=76 53 26 27 19 23
shrinkage=0.1


Tree=47
num_leaves=6
num_cat=0
split_feature=2 1 2 2 2
split_gain=3.41287 1.21174 0.568437 0.294565 0.00219872
threshold=5.1500000000000012 2.8500000000000001 4.4500000000000011 4.7500000000000009 4.4500000000000011
decision_type=2 2 2 2 2
left_child=1 2 -1 4 -3
right_child=-2 3 -4 -5 -6
leaf_value=-0.070493180079935866 0.076370542604523847 -0.070732496275421705 0.018838136475863739 -0.13658306032417639 -0.078862338503838808
leaf_weight=1.0055666640400889 2.9589256197214127 2.2580754384398469 2.4403323382139206 0.96124622225761402 0.75706464052200306
leaf_count=13 18 28 10 3 4
internal_value=0 -0.0506368 -0.00719929 -0.0882525 -0.0728091
internal_weight=0 7.42229 3.4459 3.97639 3.01514
internal_count=76 58 23 35 32
shrinkage=0.1


Tree=48
num_leaves=3
num_cat=0
split_feature=2 3
split_gain=4.06 0.0029854
threshold=3.1500000000000004 0.35000000000000003
decision_type=2 2
left_child=1 -1
right_child=-2 -3
leaf_value=0.073666930067091921 -0.071002834544771395 0.081783805083940064
leaf_weight=2.3290783613920216 4.2964728064835072 0.99862406402826298
leaf_count=18 53 5
internal_value=0 0.0761347
internal_weight=0 3.3277
internal_count=76 23
shrinkage=0.1


Tree=49
num_leaves=6
num_cat=0
split_feature=2 2 1 2 2
split_gain=2.04357 2.19929 0.768608 0.407933 0.000466839
threshold=3.1500000000000004 5.1500000000000012 2.8500000000000001 4.4500000000000011 1.5500000000000003
decision_type=2 2 2 2 2
left_child=4 2 3 -2 -1
right_child=1 -3 -4 -5 -6
leaf_value=-0.070015033911488112 0.073818575359242189 -0.070740850832127597 0.10401054974063717 0.0064979681724440788 -0.076515719392736367
leaf_weight=1.1851156502962119 1.564642265439032 1.4497874751687048 2.8830660730600357 2.1284067705273628 0.79622083157300938
leaf_count=17 12 18 13 10 6
internal_value=0 0.0407115 0.0652987 0.0350486 -0.0726811
internal_weight=0 8.0259 6.57612 3.69305 1.98134
internal_count=76 53 35 22 23
shrinkage=0.1


Tree=50
num_leaves=7
num_cat=0
split_feature=2 1 0 2 0 2
split_gain=2.88179 1.15798 0.241883 1.31082 0.233097 0.00866059
threshold=5.1500000000000012 2.8500000000000001 5.9500000000000011 4.4500000000000011 6.5500000000000007 4.4500000000000011
decision_type=2 2 2 2 2 2
left_child=1 2 3 -1 5 -3
right_child=-2 4 -4 -5 -6 -7
leaf_value=-0.070050212913833093 0.075033153420987861 -0.070192843450593151 -0.031018999254044971 0.11170813576665167 -0.13922654874345056 -0.082755097174286751
leaf_weight=0.77307561412453674 2.6440698280930519 1.9230989813804633 1.7149573042988775 0.81453877687454224 0.69426817446947087 0.97997856140136708
leaf_count=11 18 27 8 4 3 5
internal_value=0 -0.0477434 -0.00495364 0.0231355 -0.0869973 -0.0744701
internal_weight=0 6.89992 3.30257 1.58761 3.59735 2.90308
internal_count=76 58 23 15 35 32
shrinkage=0.1


Tree=51
num_leaves=3
num_cat=0
split_feature=2 2
split_gain=3.53628 0.000951511
threshold=3.1500000000000004 1.5500000000000003
decision_type=2 2
left_child=1 -1
right_child=-2 -3
leaf_value=0.072700067151515821 -0.07050258164918731 0.07886190861492981
leaf_weight=1.9503093883395197 3.8331227898597717 1.0204939097166059
leaf_count=17 53 6
internal_value=0 0.0748525
internal_weight=0 2.9708
internal_count=76 23
shrinkage=0.1


Tree=52
num_leaves=7
num_cat=0
split_feature=2 3 1 2 1 3
split_gain=1.74405 2.07197 0.840156 1.5518 0.306231 6.89318e-06
threshold=3.1500000000000004 1.6500000000000001 2.9500000000000006 5.3500000000000005 2.7500000000000004 0.35000000000000003
decision_type=2 2 2 2 2 2
left_child=5 4 -3 -4 -2 -1
right_child=1 2 3 -5 -6 -7
leaf_value=-0.069582942129116837 0.11267541735622287 -0.089189224053114219 0.11992914238217277 -0.070406413014570943 0.059531650815112386 -0.075717196855149813
leaf_weight=1.1130586192011831 1.8663427904248235 1.2331587187945845 0.80760031938552834 0.91163697466254234 2.6229136809706688 0.64444443956017483
leaf_count=18 13 10 4 12 14 5
internal_value=0 0.038852 -0.0261871 0.0189406 0.0816491 -0.0718928
internal_weight=0 7.44165 2.9524 1.71924 4.48926 1.7575
internal_count=76 53 26 16 27 23
shrinkage=0.1


Tree=53
num_leaves=7
num_cat=0
split_feature=2 1 0 2 2 2
split_gain=2.44068 1.04634 0.233036 1.15511 0.191126 0.00529041
threshold=5.1500000000000012 2.8500000000000001 5.9500000000000011 4.4500000000000011 4.8500000000000005 4.4500000000000011
decision_type=2 2 2 2 2 2
left_child=1 2 3 -1 5 -3
right_child=-2 4 -4 -5 -6 -7
leaf_value=-0.06958342475821519 0.073890736983843047 -0.069700484965382933 -0.029323568611183928 0.10879241323664979 -0.13588167899753642 -0.080523033391994459
leaf_weight=0.68300125375390075 2.3561027869582176 1.7508459910750396 1.7070596553385256 0.77417395263910294 0.60756480693817128 0.87829166650772084
leaf_count=11 18 28 8 4 2 5
internal_value=0 -0.0451484 -0.00422168 0.0251119 -0.085126 -0.0733564
internal_weight=0 6.40094 3.16423 1.45718 3.2367 2.62914
internal_count=76 58 23 15 35 33
shrinkage=0.1


Tree=54
num_leaves=3
num_cat=0
split_feature=3 2
split_gain=3.2292 0.0684016
threshold=0.45000000000000007 3.6000000000000005
decision_type=2 2
left_child=-1 -2
right_child=1 -3
leaf_value=0.072757241339883191 -0.11108592698918343 -0.070229313256612205
leaf_weight=2.3948847576975822 0.47973529249429736 3.3333428464829922
leaf_count=22 3 50
internal_value=0 -0.0753975
internal_weight=0 3.81308
internal_count=75 53
shrinkage=0.1


Tree=55
num_leaves=7
num_cat=0
split_feature=1 2 2 2 1 1
split_gain=0.87161 0.634938 0.558601 1.41681 0.598032 0.0443672
threshold=2.9500000000000006 4.4500000000000011 4.7500000000000009 4.0500000000000007 3.1500000000000008 2.5500000000000003
decision_type=2 2 2 2 2 2
left_child=1 5 3 -2 -4 -1
right_child=2 -3 4 -5 -6 -7
leaf_value=0.094154556787462262 -0.070197138011302437 0.0018134973677348086 -0.11541197925688516 0.076424380671293424 -0.0034414314745657309 0.062776310201821936
leaf_weight=1.0527036711573599 1.2970835752785208 2.2707583047449589 1.0907408148050306 1.3396076411008833 0.8512788414955138 0.84243328124284733
leaf_count=8 21 12 8 9 9 8
internal_value=0 0.0375268 -0.0256827 0.00425564 -0.0663848 0.0802623
internal_weight=0 4.1659 4.57871 2.63669 1.94202 1.89514
internal_count=75 28 47 30 17 16
shrinkage=0.1


Tree=56
num_leaves=6
num_cat=0
split_feature=3 1 1 1 2
split_gain=3.76582 1.16835 0.425395 0.349849 0.224157
threshold=1.6500000000000001 2.3500000000000001 3.0500000000000003 2.7500000000000004 4.6500000000000012
decision_type=2 2 2 2 2
left_child=1 -1 -2 -3 -5
right_child=2 3 -4 4 -6
leaf_value=0.076034698656876884 0.11461627007965465 -0.12447074018431883 0.044721119271600746 -0.070564083946719813 0
leaf_weight=0.59819824621081341 2.0724564641714101 1.0192213952541354 1.5127808600664137 2.1161073558032517 0.57484754174947728
leaf_count=6 12 9 11 33 4
internal_value=0 -0.0535665 0.0851539 -0.074491 -0.0555212
internal_weight=0 4.30837 3.58524 3.71018 2.69095
internal_count=75 52 23 46 37
shrinkage=0.1


Tree=57
num_leaves=3
num_cat=0
split_feature=3 0
split_gain=2.82187 0.0373738
threshold=0.45000000000000007 5.1500000000000012
decision_type=2 2
left_child=-1 -2
right_child=1 -3
leaf_value=0.071962830724138602 -0.098958353147910558 -0.069837412124358109
leaf_weight=2.1286190375685692 0.5459251552820209 2.8983547687530518
leaf_count=22 4 49
internal_value=0 -0.0744841
internal_weight=0 3.44428
internal_count=75 53
shrinkage=0.1


Tree=58
num_leaves=7
num_cat=0
split_feature=3 3 1 1 1 1
split_gain=1.99486 1.75147 0.589698 0.19293 0.242939 0.037332
threshold=1.6500000000000001 0.45000000000000007 3.1500000000000008 2.5500000000000003 2.9500000000000006 2.9500000000000006
decision_type=2 2 2 2 2 2
left_child=1 -1 5 -3 -5 -2
right_child=2 3 -4 4 -6 -7
leaf_value=-0.069721682763117299 -0.089417634988777667 0.03947938647227945 -0.0013427437800167682 0.11284165295018685 0.053291424580697272 -0.1203056035706543
leaf_weight=1.2031303048133848 0.84804775938391708 1.6868869066238401 0.83317649737000454 1.3552146032452586 1.40576945990324 0.81121906638145447
leaf_count=22 7 10 9 10 10 7
internal_value=0 0.0372783 -0.0701144 0.0662452 0.0825599 -0.104583
internal_weight=0 5.651 2.49244 4.44787 2.76098 1.65927
internal_count=75 52 23 30 20 14
shrinkage=0.1


Tree=59
num_leaves=6
num_cat=0
split_feature=3 2 0 3 2
split_gain=3.2469 0.555376 0.141557 0.231295 0.00682481
threshold=1.6500000000000001 4.9500000000000011 5.9500000000000011 1.8500000000000003 4.6500000000000012
decision_type=2 2 2 2 2
left_child=1 4 -2 -4 -1
right_child=2 -3 3 -5 -6
leaf_value=-0.069851948785248599 0.052185700209983914 0.015446410277984313 0.13936469670108068 0.072076417799118303 -0.08293979383914786
leaf_weight=2.4426267035305509 1.1137319281697275 0.93628942966461171 0.79962694644928012 1.4496462047100065 0.61055960506200779
leaf_count=45 5 3 4 14 4
internal_value=0 -0.0518363 0.0815517 0.0960451 -0.072504
internal_weight=0 3.98948 3.36301 2.24927 3.05319
internal_count=75 52 23 18 49
shrinkage=0.1


Tree=60
num_leaves=3
num_cat=0
split_feature=3 0
split_gain=2.46909 0.0279011
threshold=0.45000000000000007 5.1500000000000012
decision_type=2 2
left_child=-1 -2
right_child=1 -3
leaf_value=0.071259187625927423 -0.095631259176853722 -0.069501724769010717
leaf_weight=1.8838672637939451 0.51845502853393588 2.5791741199791431
leaf_count=22 4 49
internal_value=0 -0.0739094
internal_weight=0 3.09763
internal_count=75 53
shrinkage=0.1


Tree=61
num_leaves=7
num_cat=0
split_feature=3 3 0 2 2 2
split_gain=1.65139 1.47355 0.281324 0.24 0.135523 0.0172684
threshold=1.6500000000000001 0.45000000000000007 5.9500000000000011 4.8500000000000005 5.1500000000000012 3.9500000000000006
decision_type=2 2 2 2 2 2
left_child=1 -1 -2 5 -4 -3
right_child=2 3 4 -5 -6 -7
leaf_value=-0.069316541069929155 -0.024399347600771892 0.091542093939612573 -0.13410648853750162 0.024971975666559437 -0.069080353325184515 0.073352789350219327
leaf_weight=1.0609440356492994 0.97445159032940898 0.7801165729761127 0.53958247601985909 1.199051186442375 0.81903975829482079 2.1474591419100761
leaf_count=22 5 6 2 4 16 20
internal_value=0 0.0357477 -0.0655487 0.0627852 -0.0949841 0.0782361
internal_weight=0 5.18757 2.33307 4.12663 1.35862 2.92758
internal_count=75 52 23 30 18 26
shrinkage=0.1


Tree=62
num_leaves=7
num_cat=0
split_feature=3 1 1 1 3 3
split_gain=2.68351 1.1294 0.375559 0.311543 0.291347 0.128135
threshold=1.6500000000000001 2.3500000000000001 3.1500000000000008 2.7500000000000004 1.5500000000000003 1.8500000000000003
decision_type=2 2 2 2 2 2
left_child=1 -1 5 -3 -5 -2
right_child=2 3 -4 4 -6 -7
leaf_value=0.079304159624908985 0.1234197456444367 -0.12209201767568355 0.030828100606576106 -0.069528899565087079 0.025378363295086144 0.071021888341634032
leaf_weight=0.5777598470449451 1.227767392992974 0.91248796135187182 1.1241921633481977 1.7788670361042025 0.3934933841228484 0.77392960339784611
leaf_count=6 5 9 9 35 2 9
internal_value=0 -0.0489211 0.0772152 -0.0729709 -0.0522888 0.103214
internal_weight=0 3.66261 3.12589 3.08485 2.17236 2.0017
internal_count=75 52 23 46 37 14
shrinkage=0.1


Tree=63
num_leaves=3
num_cat=0
split_feature=3 0
split_gain=2.15599 0.0184098
threshold=0.45000000000000007 5.1500000000000012
decision_type=2 2
left_child=-1 -2
right_child=1 -3
leaf_value=0.070648969570331815 -0.091703888143239751 -0.069243061604568501
leaf_weight=1.6648609787225721 0.47740500420331988 2.3137641474604607
leaf_count=22 4 49
internal_value=0 -0.0731229
internal_weight=0 2.79117
internal_count=75 53
shrinkage=0.1


Tree=64
num_leaves=7
num_cat=0
split_feature=2 0 1 1 2 0
split_gain=0.62161 0.73309 0.397087 0.826942 0.403297 0.111345
threshold=5.1500000000000012 4.9500000000000011 2.3500000000000001 2.9500000000000006 4.0500000000000007 6.0500000000000007
decision_type=2 2 2 2 2 2
left_child=1 -1 -3 5 -5 -4
right_child=-2 2 3 4 -6 -7
leaf_value=-0.086126189922770602 -0.071200913600904511 -0.039733016608280478 0.10174463726084249 -0.068678495416325799 0.023294736780484673 0.054871958727969107
leaf_weight=0.62695983797311772 0.94068035483360279 0.74322514235973347 1.3456449359655382 0.64364895969629321 1.83857075124979 0.83407183736562718
leaf_count=7 17 6 12 16 12 5
internal_value=0 0.0161915 0.0280793 0.038913 -0.000511466 0.0838576
internal_weight=0 6.03212 5.40516 4.66194 2.48222 2.17972
internal_count=75 58 51 45 28 17
shrinkage=0.1


Tree=65
num_leaves=7
num_cat=0
split_feature=3 1 1 1 3 1
split_gain=2.21268 1.05129 0.35416 0.282538 0.28123 0.0228601
threshold=1.6500000000000001 2.3500000000000001 3.1500000000000008 2.7500000000000004 1.5500000000000003 2.9500000000000006
decision_type=2 2 2 2 2 2
left_child=1 -1 5 -3 -5 -2
right_child=2 3 -4 4 -6 -7
leaf_value=0.076092143545368349 0.087085181887954777 -0.11929643936780615 0.026443953690440156 -0.069153147053403669 0.025923108675949248 0.1102615647784727
leaf_weight=0.58271921798586879 0.91267184168100379 0.85915759764611754 1.0638021156191824 1.5679199174046514 0.38628354668617237 0.94704603403806686
leaf_count=6 7 9 9 35 2 7
internal_value=0 -0.046071 0.0725998 -0.0714119 -0.0503052 0.0989448
internal_weight=0 3.39608 2.92352 2.81336 1.9542 1.85972
internal_count=75 52 23 46 37 14
shrinkage=0.1


Tree=66
num_leaves=3
num_cat=0
split_feature=3 0
split_gain=1.88228 0.0111667
threshold=0.45000000000000007 5.1500000000000012
decision_type=2 2
left_child=-1 -2
right_child=1 -3
leaf_value=0.070104871231423616 -0.087603748754521982 -0.068989536741531896
leaf_weight=1.4659126326441767 0.4449979662895206 2.0829837024211884
leaf_count=22 4 49
internal_value=0 -0.0723083
internal_weight=0 2.52798
internal_count=75 53
shrinkage=0.1


Tree=67
num_leaves=7
num_cat=0
split_feature=3 3 1 1 1 1
split_gain=1.20485 1.04936 0.687728 0.529488 0.261931 0.0191926
threshold=1.6500000000000001 0.45000000000000007 2.4500000000000006 3.1500000000000008 2.7500000000000004 2.9500000000000006
decision_type=2 2 2 2 2 2
left_child=1 -1 -3 5 -4 -2
right_child=3 2 4 -5 -6 -7
leaf_value=-0.068627429619339292 -0.082743914308266719 -0.020727041983141587 0.11690790337968023 0.010186476117555016 0.054526283559855684 -0.10778165462147225
leaf_weight=0.81897813826799382 0.67055650986731075 0.8731663674116138 1.1736499071121218 0.72746064886450756 1.6027088537812231 0.68375995010137558
leaf_count=22 7 8 7 9 15 7
internal_value=0 0.0336108 0.0565829 -0.0584939 0.0809352 -0.0954634
internal_weight=0 4.4685 3.64953 2.08178 2.77636 1.35432
internal_count=75 52 30 23 22 14
shrinkage=0.1


Tree=68
num_leaves=6
num_cat=0
split_feature=3 2 0 2 2
split_gain=1.91511 0.539207 0.194206 0.0627402 0.00121146
threshold=1.6500000000000001 4.9500000000000011 5.9500000000000011 5.5500000000000007 4.6500000000000012
decision_type=2 2 2 2 2
left_child=1 4 -2 -4 -1
right_child=2 -3 3 -5 -6
leaf_value=-0.069078213607503644 0.034528628599473164 0.018476343328156893 0.10909778825716739 0.07062897373290454 -0.077683223963479597
leaf_weight=1.7677726000547416 0.99252217262983355 0.96493808925151814 0.88319939002394654 0.86466767638921738 0.4636157564818858
leaf_count=45 5 3 7 11 4
internal_value=0 -0.0438946 0.0700298 0.0901282 -0.0709138
internal_weight=0 3.19633 2.74039 1.74787 2.23139
internal_count=75 52 23 18 49
shrinkage=0.1


Tree=69
num_leaves=4
num_cat=0
split_feature=2 1 0
split_gain=1.24926 0.181931 0.00592677
threshold=1.8 3.3500000000000001 5.1500000000000012
decision_type=2 2 2
left_child=-1 2 -2
right_child=1 -3 -4
leaf_value=0.069178062298716578 -0.083792123570442065 0 -0.068724910567836001
leaf_weight=1.0842992104589941 0.41010249033570367 0.42525886744260777 1.6461814176291225
leaf_count=20 4 7 44
internal_value=0 -0.0594683 -0.0717817
internal_weight=0 2.48154 2.05628
internal_count=75 55 48
shrinkage=0.1


Tree=70
num_leaves=7
num_cat=0
split_feature=3 3 1 1 1 1
split_gain=0.988288 0.877858 0.644786 0.501158 0.238677 0.0121621
threshold=1.6500000000000001 0.45000000000000007 2.4500000000000006 3.1500000000000008 2.7500000000000004 2.9500000000000006
decision_type=2 2 2 2 2 2
left_child=1 -1 -3 5 -4 -2
right_child=3 2 4 -5 -6 -7
leaf_value=-0.068348591816479759 -0.081411848144814947 -0.022219488988768393 0.11347956272993386 0.012944828744123119 0.051605416825575894 -0.10266830436662462
leaf_weight=0.72047867812216271 0.61157787032425381 0.85170032083988223 1.097083665430546 0.70485232397913922 1.4675261341035364 0.63963374309241772
leaf_count=22 7 8 7 9 15 7
internal_value=0 0.0318978 0.0530703 -0.0543621 0.0781153 -0.0923635
internal_weight=0 4.13679 3.41631 1.95606 2.56461 1.25121
internal_count=75 52 30 23 22 14
shrinkage=0.1


Tree=71
num_leaves=4
num_cat=0
split_feature=2 2 1
split_gain=0.94589 0.323693 0.615447
threshold=4.4500000000000011 5.1500000000000012 2.6500000000000008
decision_type=2 2 2
left_child=-1 2 -2
right_child=1 -3 -4
leaf_value=-0.068095094137764475 0.075618768703561254 0.072287710431010593 -0.02034462312491804
leaf_weight=1.247669758275151 1.0166784822940829 1.3094179071485994 1.9479399733245371
leaf_count=41 4 17 13
internal_value=0 0.0308619 0.012529
internal_weight=0 4.27404 2.96462
internal_count=75 34 17
shrinkage=0.1


Tree=72
num_leaves=4
num_cat=0
split_feature=3 1 0
split_gain=1.89702 0.0281669 0.00389644
threshold=1.0500000000000003 3.2500000000000004 5.1500000000000012
decision_type=2 2 2
left_child=1 -1 -2
right_child=2 -3 -4
leaf_value=0.048116564169814892 -0.082932799812131364 0.076456963933556721 -0.068668200417741077
leaf_weight=0.49662997014820609 0.31864457204937924 1.4361842945218084 1.6023908425122497
leaf_count=11 2 20 45
internal_value=0 0.06923 -0.0710897
internal_weight=0 1.93281 1.92104
internal_count=78 31 47
shrinkage=0.1


Tree=73
num_leaves=9
num_cat=0
split_feature=0 1 0 3 3 0 1 3
split_gain=0.80468 0.334193 0.285199 0.705743 0.256845 0.0990334 0.0726358 0.00409878
threshold=6.5500000000000007 3.0500000000000003 5.9500000000000011 1.0500000000000003 1.6500000000000001 6.0500000000000007 3.2500000000000004 0.45000000000000007
decision_type=2 2 2 2 2 2 2 2
left_child=2 -2 3 6 -5 -4 -1 -8
right_child=1 -3 5 4 -6 -7 7 -9
leaf_value=-0.020709518189702927 0.12223250636008794 0.0091255394812612845 -0.077333922605601735 0.076020420156466012 -0.0037201767691208212 -0.036910506269974053 -0.06791703231754101 -0.083306874019528868
leaf_weight=0.32703846879303478 0.53810738772153832 0.51191909424960613 0.99350366741418872 0.83110073208808877 0.78118642047047615 1.5997593011707065 0.4810510016977787 0.48311887681484222
leaf_count=10 6 8 4 11 6 13 18 2
internal_value=0 0.0671909 -0.0283298 -0.00676075 0.0373185 -0.0524381 -0.0618834 -0.0757389
internal_weight=0 1.05003 5.49676 2.9035 1.61229 2.59326 1.29121 0.96417
internal_count=78 14 64 47 17 17 30 20
shrinkage=0.1


Tree=74
num_leaves=8
num_cat=0
split_feature=1 3 0 0 0 3 3
split_gain=1.16657 0.610275 0.347305 0.991478 0.755728 0.155294 0.0103428
threshold=2.8500000000000001 1.9500000000000002 6.7500000000000009 6.3500000000000005 5.9500000000000011 1.4500000000000002 1.6500000000000001
decision_type=2 2 2 2 2 2 2
left_child=5 2 3 4 6 -1 -2
right_child=1 -3 -4 -5 -6 -7 -8
leaf_value=0.026875570643690144 -0.068076229288962578 0.069701873950903506 0.027649637766200955 -0.19754100669206942 0.066608427784502294 0.081875348466571796 -0.091257132728508203
leaf_weight=0.72662021405994925 0.8735437858849775 0.57040575519204129 0.53893402218818653 0.43198803812265385 0.56624423712491978 1.8044266439974306 0.29724237322807312
leaf_count=13 31 9 4 6 3 11 1
internal_value=0 -0.0242335 -0.0440594 -0.0619259 -0.028138 0.0661279 -0.0740524
internal_weight=0 3.27836 2.70795 2.16902 1.73703 2.53105 1.17079
internal_count=78 54 45 41 35 24 32
shrinkage=0.1


Tree=75
num_leaves=4
num_cat=0
split_feature=3 2 0
split_gain=1.66432 0.00914381 0.00199277
threshold=1.0500000000000003 1.6500000000000001 5.1500000000000012
decision_type=2 2 2
left_child=1 -1 -2
right_child=2 -3 -4
leaf_value=0.071747722466868946 -0.080571688093037594 0.054205015958196351 -0.068544862922945968
leaf_weight=1.2827762104570868 0.28901315852999676 0.46910787560045708 1.4704250507056711
leaf_count=25 2 6 45
internal_value=0 0.067111 -0.0705809
internal_weight=0 1.75188 1.75944
internal_count=78 31 47
shrinkage=0.1


Tree=76
num_leaves=8
num_cat=0
split_feature=2 0 2 3 3 3 0
split_gain=1.14149 1.8127 0.517725 0.535158 0.0461432 0.00284518 0.00159328
threshold=5.0500000000000007 6.5500000000000007 1.8 1.4500000000000002 1.5500000000000003 0.45000000000000007 5.4500000000000011
decision_type=2 2 2 2 2 2 2
left_child=1 2 5 6 -2 -1 -4
right_child=4 -3 3 -5 -6 -7 -8
leaf_value=-0.067513395914540295 -0.10800395053734523 0.18040242331085132 0.0590981621330861 -0.019585375985998577 -0.071552068669611876 -0.080900179428535043 0.069704689405679227
leaf_weight=0.5586228985339402 0.70934963226318337 0.5630083493888377 0.44424436241388343 2.23025868460536 0.73758398927748203 0.43950960040092468 0.65962610207498074
leaf_count=25 2 4 4 12 17 2 12
internal_value=0 0.0115915 -0.0103222 0.00856378 -0.0894959 -0.0735147 0.0655326
internal_weight=0 4.89527 4.33226 3.33413 1.44693 0.998132 1.10387
internal_count=78 59 55 28 19 27 16
shrinkage=0.1


Tree=77
num_leaves=8
num_cat=0
split_feature=2 1 2 1 3 3 2
split_gain=1.58386 0.915106 0.921835 0.482144 0.190527 0.0811308 0.00700274
threshold=5.0500000000000007 2.7500000000000004 4.8500000000000005 3.0500000000000003 1.6500000000000001 1.5500000000000003 4.7500000000000009
decision_type=2 2 2 2 2 2 2
left_child=1 4 3 -3 -1 -2 -5
right_child=5 2 -4 6 -6 -7 -8
leaf_value=0.0086397503737994531 0.11532977512702124 0.030502164041462422 -0.18944649700869076 -0.068980368604860134 0.081732373382097656 0.072216735848789543 -0.089276374639626455
leaf_weight=0.92864490952342771 0.73205810785293568 0.7429250814020637 0.46306683123111714 0.76963257603347279 0.58283368498086929 1.1458185873925684 0.28595665097236633
leaf_count=13 2 12 2 27 4 17 1
internal_value=0 -0.0233017 -0.0635799 -0.0311135 0.036895 0.0890803 -0.0745794
internal_weight=0 3.77306 2.26158 1.79851 1.51148 1.87788 1.05559
internal_count=78 59 42 40 17 19 28
shrinkage=0.1


Tree=78
num_leaves=5
num_cat=0
split_feature=3 2 0 2
split_gain=1.46496 0.010863 0.000867017 0.000750446
threshold=1.0500000000000003 1.6500000000000001 5.1500000000000012 1.5500000000000003
decision_type=2 2 2 2
left_child=1 3 -2 -1
right_child=2 -3 -4 -5
leaf_value=0.068382675083602865 -0.078768174621387146 0.051512148613242936 -0.068404275454351779 0.078518328325920969
leaf_weight=0.84344151988625549 0.2633189596235751 0.44234336167573918 1.3254637280479071 0.29807880148291588
leaf_count=22 2 6 45 3
internal_value=0 0.0657129 -0.0701889 0.0711226
internal_weight=0 1.58386 1.58878 1.14152
internal_count=78 31 47 25
shrinkage=0.1


Tree=79
num_leaves=8
num_cat=0
split_feature=2 2 1 2 3 1 3
split_gain=0.95698 0.766569 0.443923 0.67782 0.0260888 0.011803 0.00145205
threshold=5.0500000000000007 1.8 2.7500000000000004 4.4500000000000011 1.5500000000000003 3.0500000000000003 0.45000000000000007
decision_type=2 2 2 2 2 2 2
left_child=1 6 3 -3 -2 -4 -1
right_child=4 2 5 -5 -6 -7 -8
leaf_value=-0.067353536139114628 -0.10004805728122704 0.07432917362233353 0.055533811996018922 -0.054271902524665898 -0.070962002367465749 0.071888041361099914 -0.079017806624585019
leaf_weight=0.48905480839312065 0.66804060339927651 0.65315889567136798 1.1613402143120768 1.0996448844671247 0.65191016905009747 0.85061345994472493 0.40107908844947815
leaf_count=25 2 10 10 6 17 6 2
internal_value=0 0.0106927 0.030445 -0.00628975 -0.0857634 0.0625009 -0.0727288
internal_weight=0 4.65489 3.76476 1.7528 1.31995 2.01195 0.890134
internal_count=78 59 32 16 19 16 27
shrinkage=0.1


Tree=80
num_leaves=8
num_cat=0
split_feature=2 1 2 1 3 3 2
split_gain=1.31767 0.771782 0.680672 0.452923 0.174415 0.0464866 0.00549765
threshold=5.0500000000000007 2.7500000000000004 4.8500000000000005 3.0500000000000003 1.6500000000000001 1.5500000000000003 4.7500000000000009
decision_type=2 2 2 2 2 2 2
left_child=1 4 3 -3 -1 -2 -5
right_child=5 2 -4 6 -6 -7 -8
leaf_value=0.0086045861848326934 0.10569922774509066 0.029702781716940949 -0.16621820609761115 -0.068871177887438406 0.08033936797537522 0.071533200285231247 -0.087800251877559576
leaf_weight=0.91680057346820854 0.69943994283676136 0.73404691554605983 0.46374721825122822 0.69085690379142761 0.54142366349697113 1.0133871100842951 0.2767062783241272
leaf_count=13 2 12 2 27 4 17 1
internal_value=0 -0.0208806 -0.0587717 -0.0294262 0.0353119 0.0855472 -0.0743946
internal_weight=0 3.62358 2.16536 1.70161 1.45822 1.71283 0.967563
internal_count=78 59 42 40 17 19 28
shrinkage=0.1


Tree=81
num_leaves=4
num_cat=0
split_feature=3 2 2
split_gain=1.28722 0.0119847 0.000368398
threshold=1.0500000000000003 1.6500000000000001 3.6000000000000005
decision_type=2 2 2
left_child=1 -1 -2
right_child=2 -3 -4
leaf_value=0.070536678650047785 -0.078631897014884128 0.049288086170305237 -0.068241661911446094
leaf_weight=1.0158108826726677 0.19943462312221516 0.41727815382182587 1.226620055735111
leaf_count=25 1 6 46
internal_value=0 0.0644239 -0.0697694
internal_weight=0 1.43309 1.42605
internal_count=78 31 47
shrinkage=0.1


Tree=82
num_leaves=8
num_cat=0
split_feature=2 2 1 2 3 3 3
split_gain=0.80863 0.650546 0.347456 0.588563 0.0148802 0.00360698 0.000502255
threshold=5.0500000000000007 1.8 2.7500000000000004 4.4500000000000011 1.5500000000000003 1.6500000000000001 0.45000000000000007
decision_type=2 2 2 2 2 2 2
left_child=1 6 3 -3 -2 -4 -1
right_child=4 2 5 -5 -6 -7 -8
leaf_value=-0.067209469404713174 -0.094033235590136557 0.073345009002063533 0.061930255368876821 -0.050213336583346681 -0.070428307868071069 0.05194969921066777 -0.077369809504705733
leaf_weight=0.42900395952165116 0.62060877680778481 0.60455538704991374 0.94040563702583291 1.0634996034204958 0.57564937509596348 0.99498263001441956 0.36398479342460632
leaf_count=25 2 10 13 6 17 3 2
internal_value=0 0.00995511 0.0280216 -0.00536816 -0.0827633 0.0568542 -0.0720073
internal_weight=0 4.39643 3.60344 1.66805 1.19626 1.93539 0.792989
internal_count=78 59 32 16 19 16 27
shrinkage=0.1


Tree=83
num_leaves=8
num_cat=0
split_feature=2 0 2 1 2 1 2
split_gain=1.10949 0.944033 0.715446 0.375075 0.415485 0.0160973 0.00310733
threshold=5.0500000000000007 6.5500000000000007 4.9500000000000011 3.0500000000000003 4.4500000000000011 2.8500000000000001 4.7500000000000009
decision_type=2 2 2 2 2 2 2
left_child=1 2 3 4 -1 -2 -5
right_child=5 -3 -4 6 -6 -7 -8
leaf_value=-0.067833265595182948 0.092893834773947845 -0.14712757029527318 0.111534330370646 -0.068610898702563483 0.042289260675518754 0.0714279864282934 -0.084780213954792433
leaf_weight=0.49395911954343441 0.80812445655465104 0.49361566081643093 0.49822812527418125 0.59544091764837492 1.1166127808392046 0.7444990947842598 0.25529202818870544
leaf_count=19 6 4 3 26 6 13 1
internal_value=0 -0.0190971 0.00222103 -0.0198635 0.00844886 0.0826693 -0.0735882
internal_weight=0 3.45315 2.95953 2.4613 1.61057 1.55262 0.850733
internal_count=78 59 55 52 25 19 27
shrinkage=0.1


Tree=84
num_leaves=4
num_cat=0
split_feature=3 1 3
split_gain=1.12742 0.0406238 0.0010843
threshold=1.0500000000000003 3.1500000000000008 0.45000000000000007
decision_type=2 2 2
left_child=1 -1 -3
right_child=-2 2 -4
leaf_value=0.027484137184838827 -0.069404851275997312 0.068149517318411693 0.07855774677102656
leaf_weight=0.2636510003358129 1.2771402290090916 0.63521439209580399 0.39045047760009766
leaf_count=8 47 21 2
internal_value=0 0.0631509 0.0722155
internal_weight=0 1.28932 1.02566
internal_count=78 31 23
shrinkage=0.1


Tree=85
num_leaves=7
num_cat=0
split_feature=0 0 0 1 0 1
split_gain=0.448795 0.491152 0.173292 0.434567 0.401969 0.0287318
threshold=6.3500000000000005 6.7500000000000009 5.9500000000000011 3.2500000000000004 5.0500000000000007 2.8500000000000001
decision_type=2 2 2 2 2 2
left_child=2 -2 3 4 -1 -6
right_child=1 -3 -4 -5 5 -7
leaf_value=-0.053356944052485311 0.10702825186447842 -0.03104018340272784 -0.044202986419243154 -0.072080558692091942 0.045251129314459008 0.080015139279055791
leaf_weight=0.42986754514277004 0.61349369585514046 0.44256954453885555 2.0923763457685709 0.63588882610201825 0.51122588664293289 0.48426990956068039
leaf_count=10 10 9 12 20 12 5
internal_value=0 0.0490666 -0.0239257 -0.00329064 0.0273236 0.0622694
internal_weight=0 1.05606 4.15363 2.06125 1.42536 0.995496
internal_count=78 19 59 47 27 17
shrinkage=0.1


Tree=86
num_leaves=5
num_cat=0
split_feature=3 1 0 0
split_gain=0.586277 0.519275 0.121086 0.102217
threshold=1.3500000000000003 2.9500000000000006 6.5500000000000007 6.0500000000000007
decision_type=2 2 2 2
left_child=-1 3 -3 -2
right_child=1 2 -4 -5
leaf_value=-0.06759578171468747 0.0930711830548933 0.015755882714326038 -0.033342088714007928 0.045429307887768756
leaf_weight=0.77583410125225771 0.78609588742256198 1.0494862888008358 0.96091110538691271 1.0886426419019697
leaf_count=41 7 11 12 7
internal_value=0 0.0275981 -0.00765863 0.0654628
internal_weight=0 3.88514 2.0104 1.87474
internal_count=78 37 23 14
shrinkage=0.1


Tree=87
num_leaves=4
num_cat=0
split_feature=2 2 3
split_gain=1.00314 0.0253605 0.00037431
threshold=1.8 3.1500000000000004 0.45000000000000007
decision_type=2 2 2
left_child=2 -2 -1
right_child=1 -3 -4
leaf_value=0.067755552221812607 -0.031027441606951714 -0.067964740194033271 0.076836094586291648
leaf_weight=0.65485478006303333 0.23827872425317753 1.0872272364795206 0.35102830827236176
leaf_count=25 2 49 2
internal_value=0 -0.061405 0.0710302
internal_weight=0 1.32551 1.00588
internal_count=78 51 27
shrinkage=0.1


Tree=88
num_leaves=8
num_cat=0
split_feature=0 0 0 0 1 0 1
split_gain=0.362548 0.560255 0.131618 0.267553 0.549027 0.146767 0.0177865
threshold=6.5500000000000007 6.7500000000000009 4.9500000000000011 5.9500000000000011 3.2500000000000004 6.0500000000000007 2.8500000000000001
decision_type=2 2 2 2 2 2 2
left_child=2 -2 -1 4 6 -5 -4
right_child=1 -3 3 5 -6 -7 -8
leaf_value=-0.073522373364737562 0.12629221383280823 -0.031194593819923178 0.047120612327928836 -0.066481001655113475 -0.072007813300841023 -0.014231335014546565 0.074694139997473916
leaf_weight=0.42102570924907912 0.46306535601615895 0.43941264599561691 0.54265176318585895 0.93584858626127276 0.4580462360754608 1.2790565118193624 0.46599102299660444
leaf_count=13 5 9 13 4 15 13 6
internal_value=0 0.0494948 -0.0204957 -0.0144027 0.0186775 -0.0363561 0.059965
internal_weight=0 0.902478 4.10262 3.68159 1.46669 2.21491 1.00864
internal_count=78 14 64 51 34 17 19
shrinkage=0.1


Tree=89
num_leaves=5
num_cat=0
split_feature=2 0 3 3
split_gain=0.909632 0.717284 0.552139 0.0121574
threshold=5.0500000000000007 6.3500000000000005 1.4500000000000002 1.5500000000000003
decision_type=2 2 2 2
left_child=1 2 -1 -2
right_child=3 -3 -4 -5
leaf_value=-0.067779056965671353 0.09075236642749239 -0.12394323645537993 0.032898821234871527 0.070388562233986693
leaf_weight=0.77421616017818529 0.5869384706020353 0.53614765685051669 1.8370014131069181 0.77402578108012676
leaf_count=42 2 6 11 17
internal_value=0 -0.0185846 0.00300747 0.079249
internal_weight=0 3.14737 2.61122 1.36096
internal_count=78 59 53 19
shrinkage=0.1


Tree=90
num_leaves=3
num_cat=0
split_feature=3 2
split_gain=0.823528 0.0110425
threshold=1.0500000000000003 1.6500000000000001
decision_type=2 2
left_child=1 -1
right_child=-2 -3
leaf_value=0.069397334419852505 -0.069005106669051547 0.046704068656400664
leaf_weight=0.59343803487718105 0.97409158293157816 0.40108885057270527
leaf_count=21 45 7
internal_value=0 0.0603522
internal_weight=0 0.994527
internal_count=73 28
shrinkage=0.1


Tree=91
num_leaves=7
num_cat=0
split_feature=2 2 3 2 1 3
split_gain=0.414088 0.332066 0.134508 0.142482 0.0389691 0.00206093
threshold=5.0500000000000007 1.8 1.6500000000000001 4.8500000000000005 3.0500000000000003 1.6500000000000001
decision_type=2 2 2 2 2 2
left_child=1 -1 3 4 -3 -2
right_child=5 2 -4 -5 -6 -7
leaf_value=-0.07047598815110527 -0.081592627144271984 0.070696992444001322 -0.010641533933940135 0.00038037339050439188 0.030053570117650859 -0.068159112179005749
leaf_weight=0.50320064183324609 0.40470933914184559 0.71963024325668834 1.0700347647070882 0.75571558624505986 0.36745201610028744 0.40549379959702492
leaf_count=23 2 15 6 3 6 18
internal_value=0 0.00449529 0.0174833 0.0338719 0.0570567 -0.0750007
internal_weight=0 3.41603 2.91283 1.8428 1.08708 0.810203
internal_count=73 53 30 24 21 20
shrinkage=0.1


Tree=92
num_leaves=6
num_cat=0
split_feature=2 1 3 2 3
split_gain=0.564534 0.451629 0.511696 0.00498678 0.00411972
threshold=5.0500000000000007 2.2500000000000004 1.6500000000000001 4.8500000000000005 1.6500000000000001
decision_type=2 2 2 2 2
left_child=1 -1 3 -3 -2
right_child=4 2 -4 -5 -6
leaf_value=0.089334156010994301 0.083697458244932424 -0.068398408956578852 0.020531934168753551 -0.084501791853814678 0.068897534280290926
leaf_weight=0.38758939877152521 0.44274306297302224 0.80954001192003511 1.1356311962008474 0.36712035536766052 0.63555137254297733
leaf_count=2 2 43 6 2 18
internal_value=0 -0.0104988 -0.027279 -0.0735132 0.075073
internal_weight=0 2.69988 2.31229 1.17666 1.07829
internal_count=73 53 51 45 20
shrinkage=0.1


Tree=93
num_leaves=3
num_cat=0
split_feature=3 2
split_gain=0.725431 0.0371009
threshold=1.0500000000000003 1.8
decision_type=2 2
left_child=1 -1
right_child=-2 -3
leaf_value=0.070316452631354262 -0.068727303617201585 0.021291175467044742
leaf_weight=0.69285706430673599 0.87464446667581797 0.20735367946326733
leaf_count=23 45 5
internal_value=0 0.0591422
internal_weight=0 0.900211
internal_count=73 28
shrinkage=0.1


Tree=94
num_leaves=7
num_cat=0
split_feature=0 2 2 0 1 2
split_gain=0.694615 0.670728 0.531933 0.398908 0.0782409 0.00674962
threshold=6.1500000000000012 5.1500000000000012 4.7500000000000009 5.2500000000000009 2.9500000000000006 4.0500000000000007
decision_type=2 2 2 2 2 2
left_child=2 -2 3 4 -1 -5
right_child=1 -3 -4 5 -6 -7
leaf_value=-0.0081954409564104422 0.087369765572516259 -0.069285847462335667 -0.094473798492773958 0.048089970974031039 -0.070098597991183523 0.071391765733795118
leaf_weight=0.34510150551796026 1.0429513324052093 0.36962629295885552 1.0774031840264795 0.27195209171622992 0.51536045502871275 0.32547405641525984
leaf_count=2 11 16 7 10 21 6
internal_value=0 0.0463027 -0.0411891 -0.00173784 -0.045395 0.0609628
internal_weight=0 1.41258 2.53529 1.45789 0.860462 0.597426
internal_count=73 27 46 39 23 16
shrinkage=0.1


Tree=95
num_leaves=6
num_cat=0
split_feature=2 0 2 3 3
split_gain=0.488975 0.785724 0.760597 0.340743 0.00211336
threshold=5.0500000000000007 6.0500000000000007 4.7500000000000009 1.6500000000000001 1.6500000000000001
decision_type=2 2 2 2 2
left_child=1 2 3 -1 -2
right_child=4 -3 -4 -5 -6
leaf_value=-0.068342540561985771 0.081150609214047098 -0.080487017064953661 0.10641636007108767 0.079341203394971582 0.068577383697956032
leaf_weight=0.63343782629817791 0.39991913735866536 0.97476885560899962 0.75398700684309006 0.20682577788829803 0.55886838026344776
leaf_count=37 2 12 3 1 18
internal_value=0 -0.0097291 0.0334676 -0.0318645 0.0739328
internal_weight=0 2.56902 1.59425 0.840264 0.958788
internal_count=73 53 41 38 20
shrinkage=0.1


Tree=96
num_leaves=3
num_cat=0
split_feature=3 2
split_gain=0.637226 0.036654
threshold=1.0500000000000003 1.8
decision_type=2 2
left_child=1 -1
right_child=-2 -3
leaf_value=0.069824005094352187 -0.068608914025846526 0.019232601622177704
leaf_weight=0.61507272254675627 0.78575563477352262 0.19490380957722664
leaf_count=23 45 5
internal_value=0 0.0577816
internal_weight=0 0.809977
internal_count=73 28
shrinkage=0.1


Tree=97
num_leaves=7
num_cat=0
split_feature=0 2 2 0 0 2
split_gain=0.576217 0.542991 0.442279 0.343967 0.0760425 0.00642749
threshold=6.1500000000000012 5.1500000000000012 4.7500000000000009 5.2500000000000009 5.0500000000000007 4.0500000000000007
decision_type=2 2 2 2 2 2
left_child=2 -2 3 4 -1 -5
right_child=1 -3 -4 5 -6 -7
leaf_value=-0.072403821599954413 0.079868258325253599 -0.068864607687983193 -0.090018840884450571 0.046803292579668282 -0.009570073406781095 0.070720293705303375
leaf_weight=0.4274279982782907 0.99930432625114896 0.32464890740811825 0.98844515532255162 0.2523982236161828 0.35848363256081939 0.28815778810530901
leaf_count=14 11 16 7 10 9 6
internal_value=0 0.0433169 -0.0393817 -0.00156814 -0.0438784 0.0597497
internal_weight=0 1.32395 2.31491 1.32647 0.785912 0.540556
internal_count=73 27 46 39 23 16
shrinkage=0.1


Tree=98
num_leaves=4
num_cat=0
split_feature=3 0 3
split_gain=0.32723 0.611352 0.378445
threshold=1.3500000000000003 6.2500000000000009 1.8500000000000003
decision_type=2 2 2
left_child=-1 -2 -3
right_child=1 2 -4
leaf_value=-0.067138543626931585 0.070577761055578059 -0.053508451823569017 0.067773300408441942
leaf_weight=0.44397847866639528 1.4433944001793864 1.0173834487795828 0.34377715550363053
leaf_count=37 11 12 13
internal_value=0 0.0252204 -0.0227992
internal_weight=0 2.80456 1.36116
internal_count=73 36 25
shrinkage=0.1


Tree=99
num_leaves=3
num_cat=0
split_feature=3 1
split_gain=0.567815 0.0142775
threshold=1.0500000000000003 3.3500000000000001
decision_type=2 2
left_child=1 -1
right_child=-2 -3
leaf_value=0.039586840565378312 -0.068499029952491616 0.068892846070120903
leaf_weight=0.31180757563561201 0.71082720160484314 0.42727200500667095
leaf_count=11 45 17
internal_value=0 0.056673
internal_weight=0 0.73908
internal_count=73 28
shrinkage=0.1


Tree=100
num_leaves=6
num_cat=0
split_feature=2 2 3 2 2
split_gain=0.280059 0.226296 0.0926991 0.104008 0.0399272
threshold=5.0500000000000007 1.8 1.6500000000000001 4.8500000000000005 3.6000000000000005
decision_type=2 2 2 2 2
left_child=1 -1 3 4 -3
right_child=-2 2 -4 -5 -6
leaf_value=-0.069221163537026939 -0.072025855560091459 0.021504238811683608 -0.0078313393731584691 0.00018690575273141297 0.06936087170963938
leaf_weight=0.36292451946064908 0.57638854673132289 0.26086741127073787 1.0097955260425804 0.61531876027584076 0.57439652644097805
leaf_count=23 20 4 6 3 17
internal_value=0 0.00443995 0.0153488 0.0315584 0.0545418
internal_weight=0 2.8233 2.46038 1.45058 0.835264
internal_count=73 53 30 24 21
shrinkage=0.1


Tree=101
num_leaves=4
num_cat=0
split_feature=2 0 2
split_gain=0.375062 0.569103 0.348119
threshold=5.0500000000000007 6.3500000000000005 4.4500000000000011
decision_type=2 2 2
left_child=1 2 -1
right_child=-2 -3 -4
leaf_value=-0.067027990365044032 0.072142595866911463 -0.10544089526994659 0.040455490314895697
leaf_weight=0.38352873269468624 0.76852159481495608 0.47942599235102523 1.3990688584744928
leaf_count=36 20 7 10
internal_value=0 -0.00869064 0.0172706
internal_weight=0 2.26202 1.7826
internal_count=73 53 46
shrinkage=0.1


Tree=102
num_leaves=3
num_cat=0
split_feature=2 1
split_gain=0.435127 0.113518
threshold=1.8 3.3500000000000001
decision_type=2 2
left_child=-1 -2
right_child=1 -3
leaf_value=0.069146974797689706 -0.068343968226774632 0.02457770634320712
leaf_weight=0.49317558389157057 0.6556475549004972 0.16253094933927059
leaf_count=23 45 5
internal_value=0 -0.0497551
internal_weight=0 0.818179
internal_count=73 50
shrinkage=0.1


Tree=103
num_leaves=6
num_cat=0
split_feature=2 2 3 2 3
split_gain=0.245279 0.197373 0.0888906 0.0924871 0.0606096
threshold=5.0500000000000007 1.8 1.6500000000000001 4.8500000000000005 1.0500000000000003
decision_type=2 2 2 2 2
left_child=1 -1 3 4 -3
right_child=-2 2 -4 -5 -6
leaf_value=-0.068891382357928646 -0.071336907223787424 0.0057790775629932255 -0.0084640372405700836 0.0014134172459323961 0.070359749316657436
leaf_weight=0.32369754137471396 0.50973467528820027 0.19985814951360248 0.98816789314150799 0.60781093686819077 0.57129169348627329
leaf_count=23 20 5 6 3 16
internal_value=0 0.00429093 0.0143433 0.0307643 0.0537604
internal_weight=0 2.69083 2.36713 1.37896 0.77115
internal_count=73 53 30 24 21
shrinkage=0.1


Tree=104
num_leaves=5
num_cat=0
split_feature=2 1 3 2
split_gain=0.325872 0.271795 0.35965 0.00103475
threshold=5.0500000000000007 2.2500000000000004 1.6500000000000001 4.8500000000000005
decision_type=2 2 2 2
left_child=1 -1 3 -3
right_child=-2 2 -4 -5
leaf_value=0.077270871195269805 0.071447507557277468 -0.067988243579991114 0.016407227621363079 -0.079723472574752485
leaf_weight=0.31921811774373132 0.67933578230440606 0.52738492470234621 1.0366902351379392 0.28898506984114647
leaf_count=2 20 43 6 2
internal_value=0 -0.00787797 -0.0226036 -0.0722728
internal_weight=0 2.17228 1.85306 0.81637
internal_count=73 53 51 45
shrinkage=0.1


Tree=105
num_leaves=3
num_cat=0
split_feature=3 1
split_gain=0.444465 0.0404775
threshold=1.0500000000000003 3.2500000000000004
decision_type=2 2
left_child=1 -1
right_child=-2 -3
leaf_value=0.007642944344043676 -0.068128187976864485 0.069158265623754128
leaf_weight=0.14467883110046387 0.57652933802455664 0.45943823270499706
leaf_count=9 45 19
internal_value=0 0.0546021
internal_weight=0 0.604117
internal_count=73 28
shrinkage=0.1


Tree=106
num_leaves=5
num_cat=0
split_feature=2 2 1 3
split_gain=0.214419 0.169605 0.0795273 0.0143037
threshold=5.0500000000000007 1.8 2.7500000000000004 1.6500000000000001
decision_type=2 2 2 2
left_child=1 -1 -3 -4
right_child=-2 2 3 -5
leaf_value=-0.068536309838485673 -0.070721197010100864 -0.0060890184664059935 0.044507462351575447 0.021640840957483424
leaf_weight=0.28493942087516266 0.45029312605038274 1.0878173308447006 0.49504401162266709 0.67895445227622986
leaf_count=23 20 14 14 2
internal_value=0 0.00411014 0.0133091 0.0313737
internal_weight=0 2.54676 2.26182 1.174
internal_count=73 53 30 16
shrinkage=0.1


Tree=107
num_leaves=4
num_cat=0
split_feature=0 3 3
split_gain=0.30835 0.412464 0.1073
threshold=6.1500000000000012 1.3500000000000003 1.5500000000000003
decision_type=2 2 2
left_child=1 -1 -2
right_child=2 -3 -4
leaf_value=-0.066820480364539608 -0.076860477838136071 0.065935252601030142 -0.00916220922510016
leaf_weight=0.28919338434934649 0.32603789307177045 1.2137189023196695 0.84705804660916328
leaf_count=35 8 11 19
internal_value=0 0.0403193 -0.0280683
internal_weight=0 1.50291 1.1731
internal_count=73 46 27
shrinkage=0.1


Tree=108
num_leaves=3
num_cat=0
split_feature=3 0
split_gain=0.341196 0.0814359
threshold=0.45000000000000007 5.0500000000000007
decision_type=2 2
left_child=-1 -2
right_child=1 -3
leaf_value=0.067188645758133783 0.025678255320923556 -0.067962111150639007
leaf_weight=0.3548389496281743 0.10846494883298874 0.58827475132420659
leaf_count=28 2 49
internal_value=0 -0.053232
internal_weight=0 0.69674
internal_count=79 51
shrinkage=0.1


Tree=109
num_leaves=8
num_cat=0
split_feature=2 0 2 0 2 3 2
split_gain=0.871481 2.66893 0.278247 0.199878 0.343027 0.022224 0.00764522
threshold=5.0500000000000007 6.1500000000000012 4.9500000000000011 6.1500000000000012 1.8 1.5500000000000003 3.6000000000000005
decision_type=2 2 2 2 2 2 2
left_child=2 -2 3 4 -1 6 -6
right_child=1 -3 -4 -5 5 -7 -8
leaf_value=-0.067205327258220052 0.43161505257046628 -0.067996763554889914 -0.083607094430072734 -0.026483773412049761 0.040786400676707767 0.089031916604268513 0.068010428786236657
leaf_weight=0.21894986927509374 0.19780458230525244 0.23206568695604801 0.30211728438734997 0.59452230669558037 0.20622572302818298 0.42709927260875702 0.28368352074176073
leaf_count=28 3 16 2 12 3 2 13
internal_value=0 0.161653 0.00487301 0.0203819 0.0450034 0.0719109 0.0567677
internal_weight=0 0.42987 2.0326 1.73048 1.13596 0.917009 0.489909
internal_count=79 19 60 58 46 18 16
shrinkage=0.1


Tree=110
num_leaves=7
num_cat=0
split_feature=0 2 2 0 2 2
split_gain=1.169 1.97084 0.53834 0.0439105 0.0875842 0.00812807
threshold=6.1500000000000012 5.0500000000000007 4.9500000000000011 6.3500000000000005 5.5500000000000007 4.7500000000000009
decision_type=2 2 2 2 2 2
left_child=1 2 5 -2 -5 -1
right_child=3 -3 -4 4 -6 -7
leaf_value=-0.067967105849948181 0.074743091848343587 -0.35677283041959318 0.08696404059914814 -0.021905831074274452 0.068595657094980333 -0.091317885868803461
leaf_weight=0.45073975902050756 0.49709839932620514 0.23181633092463005 0.27112442255020142 0.18167336750775576 0.25524371489882469 0.29756930470466614
leaf_count=45 7 3 1 12 10 1
internal_value=0 -0.0935412 -0.0335783 0.0542643 0.0307212 -0.0773949
internal_weight=0 1.25125 1.01943 0.934015 0.436917 0.748309
internal_count=79 50 47 29 22 46
shrinkage=0.1


Tree=111
num_leaves=3
num_cat=0
split_feature=3 0
split_gain=0.306841 0.0723878
threshold=0.45000000000000007 5.0500000000000007
decision_type=2 2
left_child=-1 -2
right_child=1 -3
leaf_value=0.067101844623149012 0.023272961988520115 -0.06780427998960302
leaf_weight=0.31519530992954969 0.10204653814435005 0.54284897726029158
leaf_count=28 2 49
internal_value=0 -0.0532276
internal_weight=0 0.644896
internal_count=79 51
shrinkage=0.1


Tree=112
num_leaves=8
num_cat=0
split_feature=2 1 2 2 1 2 2
split_gain=0.403324 1.74931 0.235535 0.166857 0.187487 0.419345 0.0204994
threshold=5.0500000000000007 2.7500000000000004 4.9500000000000011 1.8 2.8500000000000001 4.7500000000000009 4.7500000000000009
decision_type=2 2 2 2 2 2 2
left_child=2 -2 3 -1 5 -5 -6
right_child=1 -3 -4 4 6 -7 -8
leaf_value=-0.067070785032196642 0.28423938543377358 -0.068627837285932622 -0.080972902774635258 0.068893798276636636 0.050516495923274313 -0.083040406843257697 0.086568606388179314
leaf_weight=0.19436006876640055 0.27135015837848175 0.29056897945702076 0.27237623184919346 0.38074301369488217 0.32349669653922319 0.34730237722396851 0.35422684997320175
leaf_count=28 2 17 2 14 12 2 2
internal_value=0 0.101582 0.00491331 0.0195995 0.0316581 -0.00343797 0.0695169
internal_weight=0 0.561919 1.87251 1.60013 1.40577 0.728045 0.677724
internal_count=79 19 60 58 30 16 14
shrinkage=0.1


Tree=113
num_leaves=7
num_cat=0
split_feature=0 2 2 3 2 2
split_gain=0.834842 0.542636 0.459575 0.157778 0.00487518 0.00456598
threshold=6.1500000000000012 5.0500000000000007 4.9500000000000011 1.6500000000000001 4.8500000000000005 4.7500000000000009
decision_type=2 2 2 2 2 2
left_child=1 2 5 -2 -5 -1
right_child=3 -3 -4 4 -6 -7
leaf_value=-0.067725123751088787 -0.018093905983770319 -0.17372845067649739 0.083692025415174717 0.088517365779384127 0.068118412896748484 -0.087272841868277481
leaf_weight=0.39609886705875419 0.23609131667762984 0.39081815257668495 0.24667875468730927 0.28129392862319946 0.35353276692330837 0.27321541309356689
leaf_count=45 11 3 1 1 17 1
internal_value=0 -0.0750131 -0.0327788 0.0513364 0.0773249 -0.0758636
internal_weight=0 1.30681 0.915993 0.870918 0.634827 0.669314
internal_count=79 50 47 29 18 46
shrinkage=0.1


Tree=114
num_leaves=3
num_cat=0
split_feature=2 3
split_gain=0.295294 0.0260675
threshold=1.8 1.0500000000000003
decision_type=2 2
left_child=-1 -2
right_child=1 -3
leaf_value=0.067278072798481303 -0.015456064078814558 -0.067648916288193847
leaf_weight=0.29492565244436264 0.12954241223633289 0.43953060149215162
leaf_count=28 5 46
internal_value=0 -0.0559548
internal_weight=0 0.569073
internal_count=79 51
shrinkage=0.1


Tree=115
num_leaves=8
num_cat=0
split_feature=3 2 1 2 2 3 2
split_gain=0.316673 0.688597 0.366666 0.228699 0.224697 0.0155967 0.00110033
threshold=1.6500000000000001 5.0500000000000007 3.1500000000000008 4.9500000000000011 1.8 1.0500000000000003 4.8500000000000005
decision_type=2 2 2 2 2 2 2
left_child=1 3 6 4 -1 -6 -2
right_child=2 -3 -4 -5 5 -7 -8
leaf_value=-0.066937494140131296 -0.08346454184215675 0.16740430046610918 0.059356913571630046 -0.080222351335381956 0.032320515015196109 0.068938416233660704 -0.068998364030570719
leaf_weight=0.17270321259275101 0.24481382966041554 0.38657603412866581 0.32425666647031903 0.21564328670501709 0.1653694286942482 0.52713031647726893 0.27603341918438673
leaf_count=28 1 2 7 1 5 22 13
internal_value=0 0.0528404 -0.0239407 0.0117669 0.0348173 0.0603477 -0.0760023
internal_weight=0 1.46742 0.845104 1.08085 0.865203 0.6925 0.520847
internal_count=79 58 21 56 55 27 14
shrinkage=0.1


Tree=116
num_leaves=8
num_cat=0
split_feature=0 1 0 2 0 2 0
split_gain=0.647544 0.539782 0.435966 0.235978 0.0351435 0.125398 0.00191912
threshold=6.1500000000000012 2.2500000000000004 5.9500000000000011 5.0500000000000007 6.3500000000000005 5.3500000000000005 5.8500000000000005
decision_type=2 2 2 2 2 2 2
left_child=1 -1 3 6 -2 -6 -3
right_child=4 2 -4 -5 5 -7 -8
leaf_value=0.068382420702146812 0.069561030927359824 -0.066455661358432033 -0.17234467620764793 0.070663914126248437 -0.056056044421504962 0.067992038500518784 -0.083965815032970667
leaf_weight=0.24385084956884417 0.42073404137045134 0.21483831596560754 0.44089514017105103 0.14278355240821838 0.12138465791940689 0.24456007778644562 0.24889339506626129
leaf_count=2 7 42 3 2 9 13 1
internal_value=0 -0.0653602 -0.0965988 -0.0413612 0.0496906 0.0265544 -0.0760832
internal_weight=0 1.29126 1.04741 0.606515 0.786679 0.365945 0.463732
internal_count=79 50 48 45 29 22 43
shrinkage=0.1


Tree=117
num_leaves=3
num_cat=0
split_feature=3 1
split_gain=0.246251 0.0563747
threshold=0.45000000000000007 3.3500000000000001
decision_type=2 2
left_child=-1 -2
right_child=1 -3
leaf_value=0.06700969583175212 -0.067532865230895231 0.020319684392808453
leaf_weight=0.25362372165545821 0.43798419111408293 0.085563181433826685
leaf_count=28 47 4
internal_value=0 -0.0529721
internal_weight=0 0.523547
internal_count=79 51
shrinkage=0.1


Tree=118
num_leaves=8
num_cat=0
split_feature=3 3 1 2 1 2 2
split_gain=0.255575 0.437051 0.312716 0.179485 0.189094 0.0178906 0.000205648
threshold=1.6500000000000001 1.5500000000000003 3.1500000000000008 4.9500000000000011 3.3500000000000001 3.1500000000000004 4.8500000000000005
decision_type=2 2 2 2 2 2 2
left_child=1 3 6 4 5 -1 -2
right_child=2 -3 -4 -5 -6 -7 -8
leaf_value=0.022927640024165849 -0.081010871106208582 0.12304315882842663 0.055545217440988615 -0.078245354607256304 -0.067297813208577098 0.067727266401525363 -0.068601135083284651
leaf_weight=0.12291987193748377 0.22320085763931263 0.50235386192798615 0.30336104612797499 0.19529424607753754 0.15434266370721161 0.42333870707079768 0.24362009204924107
leaf_count=10 1 3 7 1 20 24 13
internal_value=0 0.04837 -0.0232986 0.00637979 0.0301211 0.0578411 -0.0747626
internal_weight=0 1.39825 0.770182 0.895895 0.700601 0.546259 0.466821
internal_count=79 58 21 55 54 34 14
shrinkage=0.1


Tree=119
num_leaves=6
num_cat=0
split_feature=3 1 1 1 2
split_gain=0.437988 0.461453 0.265505 0.257907 0.127981
threshold=1.6500000000000001 2.2500000000000004 3.1500000000000008 2.7500000000000004 5.7500000000000009
decision_type=2 2 2 2 2
left_child=1 -1 -2 -3 -5
right_child=2 3 -4 4 -6
leaf_value=0.064866920234441419 0.074848671702541544 -0.14896911283158085 -0.03973586910140893 -0.067443092376035629 0.06972756847565785
leaf_weight=0.22389827109873273 0.55080737359821808 0.44476086692884564 0.31819958705455065 0.32268367474898696 0.085483953356742859
leaf_count=2 14 14 7 41 1
internal_value=0 -0.0626173 0.0327695 -0.0962073 -0.0384543
internal_weight=0 1.07683 0.869007 0.852928 0.408168
internal_count=79 58 21 56 42
shrinkage=0.1


Tree=120
num_leaves=3
num_cat=0
split_feature=2 3
split_gain=0.228598 0.0731315
threshold=1.8 0.45000000000000007
decision_type=2 2
left_child=-1 -2
right_child=1 -3
leaf_value=0.066996929438739292 0.066375494323356099 -0.067400942892725454
leaf_weight=0.23209280567243695 0.044459279626607895 0.42132030916400254
leaf_count=28 1 50
internal_value=0 -0.0544034
internal_weight=0 0.46578
internal_count=79 51
shrinkage=0.1


Tree=121
num_leaves=7
num_cat=0
split_feature=1 2 2 2 1 2
split_gain=0.213872 0.451116 0.243659 0.126285 0.157796 0.255188
threshold=2.7500000000000004 5.0500000000000007 4.8500000000000005 5.0500000000000007 2.8500000000000001 4.1500000000000012
decision_type=2 2 2 2 2 2
left_child=1 2 -1 4 -2 -6
right_child=3 -3 -4 -5 5 -7
leaf_value=0.065231169173417328 -0.059693923848706511 0.13853563428802698 -0.074246495754250727 -0.068632291830947628 -0.067042891964477588 0.075212437465919768
leaf_weight=0.24924225034192238 0.23194399848580338 0.39087787829339504 0.25155414454638958 0.2600019546225667 0.17232800857163966 0.46478764479979873
leaf_count=14 2 2 3 17 28 13
internal_value=0 0.0580167 -0.00461732 -0.00743292 0.0107542 0.0365681
internal_weight=0 0.891674 0.500796 1.12906 0.86906 0.637116
internal_count=79 19 17 60 43 41
shrinkage=0.1


Tree=122
num_leaves=6
num_cat=0
split_feature=3 1 1 1 2
split_gain=0.355392 0.368976 0.225589 0.192795 0.12685
threshold=1.6500000000000001 2.2500000000000004 3.1500000000000008 2.7500000000000004 5.7500000000000009
decision_type=2 2 2 2 2
left_child=1 -1 -2 -3 -5
right_child=2 3 -4 4 -6
leaf_value=0.061996670632681709 0.073741842114848216 -0.13256304526617671 -0.03504078572880083 -0.067224388076983596 0.06991207382835285
leaf_weight=0.20471740327775456 0.48941432591527712 0.44274508394300938 0.31075056083500385 0.28125358023680747 0.088056884706020355
leaf_count=2 14 14 7 41 1
internal_value=0 -0.057677 0.0313624 -0.0879774 -0.0342381
internal_weight=0 1.01677 0.800165 0.812056 0.36931
internal_count=79 58 21 56 42
shrinkage=0.1


Tree=123
num_leaves=3
num_cat=0
split_feature=3 0
split_gain=0.191823 0.045127
threshold=0.45000000000000007 5.0500000000000007
decision_type=2 2
left_child=-1 -2
right_child=1 -3
leaf_value=0.066716723333354447 0.020023496359652473 -0.067218144438888475
leaf_weight=0.19779232749715447 0.069209415465593338 0.35124883917160332
leaf_count=28 2 49
internal_value=0 -0.0526049
internal_weight=0 0.420458
internal_count=79 51
shrinkage=0.1


Tree=124
num_leaves=7
num_cat=0
split_feature=3 3 1 2 2 2
split_gain=0.173147 0.235188 0.233428 0.134735 0.144413 0.015368
threshold=1.6500000000000001 1.5500000000000003 3.1500000000000008 4.9500000000000011 1.8 3.1500000000000004
decision_type=2 2 2 2 2 2
left_child=1 3 -2 4 -1 -6
right_child=2 -3 -4 -5 5 -7
leaf_value=-0.066426393104780698 -0.072774063923138108 0.095186111645446506 0.048242368617010908 -0.075186199453526947 0.020870669027457097 0.067387018284503317
leaf_weight=0.1219168745446948 0.3741838661953808 0.5008527934551239 0.27673262916505337 0.15965831279754639 0.1000654324889183 0.32641993975266814
leaf_count=28 14 3 7 1 2 24
internal_value=0 0.0427297 -0.0211614 0.00547395 0.0291508 0.0567224
internal_weight=0 1.20891 0.650916 0.708061 0.548402 0.426485
internal_count=79 58 21 55 54 26
shrinkage=0.1


Tree=125
num_leaves=5
num_cat=0
split_feature=0 3 2 3
split_gain=0.422721 0.16116 0.177993 0.0784749
threshold=6.1500000000000012 1.5500000000000003 4.9500000000000011 1.6500000000000001
decision_type=2 2 2 2
left_child=1 2 -1 -2
right_child=3 -3 -4 -5
leaf_value=-0.06652877480906301 -0.006128413620585825 -0.082225605683502234 0.075694695767029641 0.072432734257071973
leaf_weight=0.18733255297411211 0.17704875837080192 0.71804222650825977 0.16593657433986664 0.43040131870657206
leaf_count=44 11 5 1 18
internal_value=0 -0.0550204 0 0.0493601
internal_weight=0 1.07131 0.353269 0.60745
internal_count=79 50 45 29
shrinkage=0.1


Tree=126
num_leaves=4
num_cat=0
split_feature=1 0 0
split_gain=0.150214 0.0432181 0.0131386
threshold=3.1500000000000008 5.7500000000000009 4.9500000000000011
decision_type=2 2 2
left_child=2 -2 -1
right_child=1 -3 -4
leaf_value=-0.013537815360048076 0.068066324680258555 -0.04681992410190132 -0.067138743820678873
leaf_weight=0.061576399020850658 0.18993461597710848 0.038428240921348333 0.26494360947981477
leaf_count=6 18 8 39
internal_value=0 0.0482678 -0.0573562
internal_weight=0 0.228363 0.32652
internal_count=71 26 45
shrinkage=0.1


Tree=127
num_leaves=5
num_cat=0
split_feature=2 3 1 1
split_gain=0.202563 0.170732 0.176504 0.00333146
threshold=4.9500000000000011 1.6500000000000001 3.2500000000000004 2.9500000000000006
decision_type=2 2 2 2
left_child=1 2 3 -1
right_child=-2 -3 -4 -5
leaf_value=0.067751049399226812 -0.073751591855035145 -0.073715390679177761 -0.067810286667066663 0.045904138608452189
leaf_weight=0.34068717411719263 0.5054969594348222 0.19792529195547104 0.13424084382131696 0.13613274577073753
leaf_count=20 18 2 16 15
internal_value=0 0.00683763 0.0331032 0.0617369
internal_weight=0 0.808986 0.611061 0.47682
internal_count=71 53 51 35
shrinkage=0.1


Tree=128
num_leaves=3
num_cat=0
split_feature=2 2
split_gain=0.258695 0.036585
threshold=4.4500000000000011 4.9500000000000011
decision_type=2 2
left_child=-1 -2
right_child=1 -3
leaf_value=-0.066539466634660746 0.03048952219494502 0.073688113371966277
leaf_weight=0.20064208074472845 0.30973739270120859 0.58700971771031618
leaf_count=44 9 18
internal_value=0 0.0588859
internal_weight=0 0.896747
internal_count=71 27
shrinkage=0.1


Tree=129
num_leaves=4
num_cat=0
split_feature=1 0 0
split_gain=0.129631 0.0376046 0.0135214
threshold=3.1500000000000008 5.7500000000000009 4.9500000000000011
decision_type=2 2 2
left_child=2 -2 -1
right_child=1 -3 -4
leaf_value=-0.011298234917862329 0.067745360543261496 -0.045031678430519889 -0.066976531145256327
leaf_weight=0.059563335031270981 0.16796029056422412 0.034702424192801118 0.23323208710644394
leaf_count=6 18 8 39
internal_value=0 0.0479095 -0.0560131
internal_weight=0 0.202663 0.292795
internal_count=71 26 45
shrinkage=0.1


Tree=130
num_leaves=5
num_cat=0
split_feature=2 0 1 2
split_gain=0.176222 0.0998559 0.137829 0.0158396
threshold=4.9500000000000011 4.9500000000000011 3.2500000000000004 4.5500000000000007
decision_type=2 2 2 2
left_child=1 -1 3 -3
right_child=-2 2 -4 -5
leaf_value=-0.053911983665684782 -0.072794920067081048 0.067448604870227538 -0.067483618700844905 0.02164403152569443
leaf_weight=0.19761978974565864 0.4482436936814338 0.31186553696170449 0.11491212015971541 0.10967255057767034
leaf_count=11 18 23 14 5
internal_value=0 0.00666627 0.0291806 0.0557839
internal_weight=0 0.73407 0.53645 0.421538
internal_count=71 53 42 28
shrinkage=0.1


Tree=131
num_leaves=3
num_cat=0
split_feature=2 2
split_gain=0.221861 0.0359635
threshold=4.4500000000000011 4.9500000000000011
decision_type=2 2
left_child=-1 -2
right_child=1 -3
leaf_value=-0.066418969877416842 0.028145794470368371 0.072746150308738919
leaf_weight=0.17719505110289901 0.29143683635629714 0.5208168039098382
leaf_count=44 9 18
internal_value=0 0.0568745
internal_weight=0 0.812254
internal_count=71 27
shrinkage=0.1


Tree=132
num_leaves=3
num_cat=0
split_feature=2 1
split_gain=0.144368 0.0311092
threshold=1.8 3.3500000000000001
decision_type=2 2
left_child=-1 -2
right_child=1 -3
leaf_value=0.067240673578549764 -0.066920601964290297 0.025291013070273084
leaf_weight=0.1468577035702765 0.25585833773948252 0.04086104198358953
leaf_count=22 45 4
internal_value=0 -0.0538638
internal_weight=0 0.296719
internal_count=71 49
shrinkage=0.1


Tree=133
num_leaves=5
num_cat=0
split_feature=3 1 1 3
split_gain=0.124357 0.14071 0.0558049 0.0865184
threshold=1.4500000000000002 3.0500000000000003 2.9500000000000006 1.6500000000000001
decision_type=2 2 2 2
left_child=1 -1 -2 -4
right_child=2 -3 3 -5
leaf_value=0.064005398637759559 -0.065747045691836897 -0.067089854789911113 0.06649565599029808 -0.066867923453213116
leaf_weight=0.26335863606072962 0.49495374853722751 0.11820556281600147 0.093938485719263554 0.10076844738796353
leaf_count=23 9 21 6 12
internal_value=0 0.0231144 -0.0478981 -0.00197914
internal_weight=0 0.381564 0.689661 0.194707
internal_count=71 44 27 18
shrinkage=0.1


Tree=134
num_leaves=3
num_cat=0
split_feature=2 2
split_gain=0.190991 0.0348438
threshold=4.4500000000000011 4.9500000000000011
decision_type=2 2
left_child=-1 -2
right_child=1 -3
leaf_value=-0.066298317343641319 0.026491838807269061 0.071919279295770577
leaf_weight=0.15697385952807963 0.28059524693526328 0.46147187566384673
leaf_count=44 9 18
internal_value=0 0.0548853
internal_weight=0 0.742067
internal_count=71 27
shrinkage=0.1


Tree=135
num_leaves=4
num_cat=0
split_feature=1 0 1
split_gain=0.0988963 0.0496163 0.00438079
threshold=3.0500000000000003 6.1500000000000012 2.9500000000000006
decision_type=2 2 2
left_child=2 -2 -1
right_child=1 -3 -4
leaf_value=-0.06676569812316098 0.067151077032116285 -0.063832690893005209 -0.024591174286022806
leaf_weight=0.17502312955912203 0.14464853657409549 0.03535173274576664 0.038754336885176599
leaf_count=28 21 10 12
internal_value=0 0.0408351 -0.0596177
internal_weight=0 0.18 0.213777
internal_count=71 31 40
shrinkage=0.1


Tree=136
num_leaves=5
num_cat=0
split_feature=2 3 1 1
split_gain=0.135637 0.132967 0.120364 0.00261307
threshold=4.9500000000000011 1.6500000000000001 3.2500000000000004 2.9500000000000006
decision_type=2 2 2 2
left_child=1 2 3 -1
right_child=-2 -3 -4 -5
leaf_value=0.067241819810089629 -0.071245976518829732 -0.071754206154938285 -0.066827862551209274 0.044939869488475954
leaf_weight=0.24651551898568869 0.35276348411571234 0.15999586880207062 0.092819705605506897 0.11480775638483465
leaf_count=20 18 2 16 15
internal_value=0 0.00642511 0.0342022 0.06045
internal_weight=0 0.614139 0.454143 0.361323
internal_count=71 53 51 35
shrinkage=0.1


Tree=137
num_leaves=4
num_cat=0
split_feature=3 1 3
split_gain=0.161945 0.0280847 0.0253292
threshold=1.4500000000000002 2.9500000000000006 1.9500000000000002
decision_type=2 2 2
left_child=-1 -2 -3
right_child=1 2 -4
leaf_value=-0.066164142930116812 0.065666765886013098 -0.0079096340595829727 0.06560302610653776
leaf_weight=0.13740827585570514 0.4829210159368813 0.11990846553817391 0.074840774293988943
leaf_count=44 9 7 11
internal_value=0 0.0526411 0.0197951
internal_weight=0 0.67767 0.194749
internal_count=71 27 18
shrinkage=0.1


Tree=138
num_leaves=3
num_cat=0
split_feature=2 2
split_gain=0.112895 0.0122731
threshold=1.8 3.1500000000000004
decision_type=2 2
left_child=-1 -2
right_child=1 -3
leaf_value=0.066741430606223728 -0.010292041726108109 -0.066378423913773285
leaf_weight=0.11696866247802973 0.056011484935879707 0.1781148430891335
leaf_count=22 2 47
internal_value=0 -0.0534148
internal_weight=0 0.234126
internal_count=71 49
shrinkage=0.1


Tree=139
num_leaves=5
num_cat=0
split_feature=2 0 1 2
split_gain=0.121233 0.075761 0.0939156 0.0101206
threshold=4.9500000000000011 4.9500000000000011 3.2500000000000004 4.5500000000000007
decision_type=2 2 2 2
left_child=1 -1 3 -3
right_child=-2 2 -4 -5
leaf_value=-0.051930938009222917 -0.070611003186557761 0.066955650642716788 -0.066503332854309871 0.02605577848295855
leaf_weight=0.15577460918575525 0.31582284346222878 0.22035151021555066 0.07923738332465291 0.097191787790507078
leaf_count=11 18 23 14 5
internal_value=0 0.00691468 0.0302853 0.0547723
internal_weight=0 0.552555 0.396781 0.317543
internal_count=71 53 42 28
shrinkage=0.1


Tree=140
num_leaves=4
num_cat=0
split_feature=3 1 3
split_gain=0.13867 0.0254967 0.0227745
threshold=1.4500000000000002 2.9500000000000006 1.9500000000000002
decision_type=2 2 2
left_child=-1 -2 -3
right_child=1 2 -4
leaf_value=-0.066025315713997959 0.064079536998942671 -0.0078908042951159069 0.065362456091284896
leaf_weight=0.12097490590531379 0.43328919634222984 0.11390405101701617 0.065790077904239297
leaf_count=44 9 7 11
internal_value=0 0.0508439 0.0183375
internal_weight=0 0.612983 0.179694
internal_count=71 27 18
shrinkage=0.1


Tree=141
num_leaves=3
num_cat=0
split_feature=2 1
split_gain=0.098815 0.0232654
threshold=1.8 3.3500000000000001
decision_type=2 2
left_child=-1 -2
right_child=1 -3
leaf_value=0.066497400674195239 -0.066564894355497645 0.02512818935371984
leaf_weight=0.10302993492223322 0.18101753364317119 0.030813509365543723
leaf_count=22 45 4
internal_value=0 -0.052725
internal_weight=0 0.211831
internal_count=71 49
shrinkage=0.1


Tree=142
num_leaves=5
num_cat=0
split_feature=2 3 1 2
split_gain=0.109183 0.107428 0.0941898 0.0073615
threshold=4.9500000000000011 1.6500000000000001 3.2500000000000004 3.1500000000000004
decision_type=2 2 2 2
left_child=1 2 3 -1
right_child=-2 -3 -4 -5
leaf_value=0.021651942096817138 -0.070052613127940366 -0.070320129868051987 -0.066232796337748798 0.066968402245274464
leaf_weight=0.050466630724258721 0.28279097902122885 0.13091982342302799 0.073194655007682741 0.25089906377252191
leaf_count=8 18 2 16 27
internal_value=0 0.00738786 0.0348331 0.0597327
internal_weight=0 0.50548 0.37456 0.301366
internal_count=71 53 51 35
shrinkage=0.1


Tree=143
num_leaves=3
num_cat=0
split_feature=2 2
split_gain=0.120351 0.0345549
threshold=4.4500000000000011 4.9500000000000011
decision_type=2 2
left_child=-1 -2
right_child=1 -3
leaf_value=-0.065889293531493656 0.018702325131386085 0.070066459529961669
leaf_weight=0.10772018163697794 0.22833425179123878 0.32989165093749762
leaf_count=44 9 18
internal_value=0 0.0492473
internal_weight=0 0.558226
internal_count=71 27
shrinkage=0.1


Tree=144
num_leaves=3
num_cat=0
split_feature=2 2
split_gain=0.0937788 0.0108992
threshold=1.8 3.1500000000000004
decision_type=2 2
left_child=-1 -2
right_child=1 -3
leaf_value=0.065848122075942761 -0.0094132332500503069 -0.066448483536800038
leaf_weight=0.095069208764471114 0.048116568475961685 0.16023237223271281
leaf_count=28 2 42
internal_value=0 -0.0537871
internal_weight=0 0.208349
internal_count=72 44
shrinkage=0.1


Tree=145
num_leaves=7
num_cat=0
split_feature=0 1 3 0 1 0
split_gain=1.13134 0.233346 0.176372 0.100778 0.0472968 0.00658512
threshold=6.5500000000000007 3.1500000000000008 1.6500000000000001 5.8500000000000005 2.2500000000000004 5.1500000000000012
decision_type=2 2 2 2 2 2
left_child=1 2 4 -3 -1 -6
right_child=-2 3 -4 -5 5 -7
leaf_value=-0.038855426087046091 0.17233585254430112 -0.065394764455921378 -0.081578409420545242 0.076205903101711478 0.018253973202415168 0.066358090339335901
leaf_weight=0.088952444493770377 0.38322166551370185 0.061987323337234557 0.60983349662274122 0.2520279090385884 0.048082658788189292 0.10748795140534639
leaf_count=2 13 24 9 4 6 14
internal_value=0 -0.0256224 -0.0527751 0.0479148 0.0186246 0.0521742
internal_weight=0 1.16837 0.854357 0.314015 0.244523 0.155571
internal_count=72 59 31 28 22 20
shrinkage=0.1


Tree=146
num_leaves=5
num_cat=0
split_feature=0 0 2 0
split_gain=1.01515 0.231161 0.100155 0.15048
threshold=6.5500000000000007 5.9500000000000011 4.8500000000000005 4.9500000000000011
decision_type=2 2 2 2
left_child=1 2 3 -1
right_child=-2 -3 -4 -5
leaf_value=0.055422425953524306 -0.15508344921692543 0.07331282870168862 0.067501560558241219 -0.077940743337111471
leaf_weight=0.1165499231428837 0.40920864010695379 0.57366585009731352 0.10727506317198277 0.30231730896048248
leaf_count=11 13 11 4 33
internal_value=0 0.02937 -0.0183399 -0.0405785
internal_weight=0 1.09981 0.526142 0.418867
internal_count=72 59 48 44
shrinkage=0.1


Tree=147
num_leaves=3
num_cat=0
split_feature=3 3
split_gain=0.0922047 0.00915806
threshold=1.0500000000000003 0.45000000000000007
decision_type=2 2
left_child=1 -1
right_child=-2 -3
leaf_value=0.065756098379449721 -0.066570274278984112 9.8593817608876283e-05
leaf_weight=0.088003981858491898 0.16045180318178609 0.032321084989234805
leaf_count=28 40 4
internal_value=0 0.0490034
internal_weight=0 0.120325
internal_count=72 32
shrinkage=0.1


Tree=148
num_leaves=5
num_cat=0
split_feature=2 1 3 2
split_gain=0.391064 0.187395 0.227547 0.00332482
threshold=4.9500000000000011 3.1500000000000008 1.6500000000000001 3.6000000000000005
decision_type=2 2 2 2
left_child=1 2 3 -1
right_child=-2 -3 -4 -5
leaf_value=0.032708352145385526 0.086276656118563527 0.05059959435524447 -0.080814544642838382 0.066279514432549327
leaf_weight=0.065074601676315069 0.56429661740548909 0.27440522273536772 0.50565969571471214 0.10108650114852935
leaf_count=7 21 25 4 15
internal_value=0 -0.0188457 -0.047369 0.0537721
internal_weight=0 0.946226 0.671821 0.166161
internal_count=72 51 26 22
shrinkage=0.1


Tree=149
num_leaves=6
num_cat=0
split_feature=2 2 1 2 1
split_gain=0.321524 0.541613 0.316601 0.0926278 0.0617812
threshold=4.9500000000000011 5.0500000000000007 3.0500000000000003 4.7500000000000009 2.5500000000000003
decision_type=2 2 2 2 2
left_child=2 -2 3 4 -1
right_child=1 -3 -4 -5 -6
leaf_value=0.049478003412790406 -0.1360635373887554 0.067718625034561011 -0.077920378972421864 0.083761109422699723 -0.06599106936775033
leaf_weight=0.10833691083826125 0.42269221087917686 0.18783939839340746 0.23239910940174013 0.43953263387084007 0.080964124470483512
leaf_count=5 3 18 26 3 17
internal_value=0 -0.0731927 0.021618 0.0585737 0
internal_weight=0 0.610532 0.861233 0.628834 0.189301
internal_count=72 21 51 25 22
shrinkage=0.1


Tree=150
num_leaves=3
num_cat=0
split_feature=3 3
split_gain=0.0858438 0.00817699
threshold=1.0500000000000003 0.45000000000000007
decision_type=2 2
left_child=1 -1
right_child=-2 -3
leaf_value=0.065674776021106371 -0.06645664692885947 0.0025831494255269855
leaf_weight=0.082935358630493283 0.14507093332940713 0.03208559937775135
leaf_count=28 40 4
internal_value=0 0.0489997
internal_weight=0 0.115021
internal_count=72 32
shrinkage=0.1


Tree=151
num_leaves=5
num_cat=0
split_feature=2 1 3 1
split_gain=0.275937 0.155822 0.198047 0.00321413
threshold=4.9500000000000011 3.1500000000000008 1.6500000000000001 2.8500000000000001
decision_type=2 2 2 2
left_child=1 2 3 -1
right_child=-2 -3 -4 -5
leaf_value=0.066360598837893137 0.070264156344888404 0.047102151451246951 -0.078844041170609558 0.032043273780311098
leaf_weight=0.088740559760481119 0.59967440401669592 0.25671563349897042 0.45448102802038193 0.06279311771504581
leaf_count=10 21 25 4 12
internal_value=0 -0.0179908 -0.0457405 0.0528421
internal_weight=0 0.86273 0.606015 0.151534
internal_count=72 51 26 22
shrinkage=0.1


Tree=152
num_leaves=5
num_cat=0
split_feature=0 0 2 0
split_gain=0.550068 0.194189 0.0803168 0.112323
threshold=6.4500000000000011 5.9500000000000011 4.8500000000000005 4.9500000000000011
decision_type=2 2 2 2
left_child=1 2 3 -1
right_child=-2 -3 -4 -5
leaf_value=0.052933813444471706 -0.099072909031638068 0.074693400174258504 0.066870891912843233 -0.07510892049770504
leaf_weight=0.093504617339931428 0.50960187468444929 0.47711615427397192 0.088237891905009747 0.24918060499476269
leaf_count=11 15 9 4 33
internal_value=0 0.0307016 -0.0177592 -0.039861
internal_weight=0 0.908039 0.430923 0.342685
internal_count=72 57 48 44
shrinkage=0.1


Tree=153
num_leaves=3
num_cat=0
split_feature=3 3
split_gain=0.0815086 0.00714848
threshold=1.0500000000000003 0.45000000000000007
decision_type=2 2
left_child=1 -1
right_child=-2 -3
leaf_value=0.065613498769655276 -0.066334145605394954 0.0054603968339092613
leaf_weight=0.079599535092711449 0.13300053920829669 0.031628695083782077
leaf_count=28 40 4
internal_value=0 0.0494646
internal_weight=0 0.111228
internal_count=72 32
shrinkage=0.1


Tree=154
num_leaves=6
num_cat=0
split_feature=0 1 3 1 0
split_gain=0.470009 0.15279 0.0836137 0.0394396 0.00547316
threshold=6.4500000000000011 3.1500000000000008 1.6500000000000001 2.2500000000000004 5.1500000000000012
decision_type=2 2 2 2 2
left_child=1 2 3 -1 -5
right_child=-2 -3 -4 4 -6
